{"n_estimators": 500, "learning_rate": 0.01, "init_prediction": 1349.11403, "trees": [{"children_left": [1, 2, 3, 4, 5, 6, -1, -1, -1, 10, -1, -1, 13, 14, 15, -1, -1, 18, -1, -1, 21, -1, 23, -1, -1, 26, 27, 28, -1, 30, -1, -1, 33, 34, -1, -1, 37, -1, -1, 40, 41, 42, -1, -1, -1, 46, -1, -1, 49, 50, 51, 52, 53, -1, -1, 56, -1, -1, 59, 60, -1, -1, 63, -1, -1, -1, 67, 68, 69, 70, -1, -1, -1, 74, 75, -1, -1, -1, 79, 80, 81, -1, -1, 84, -1, -1, 87, -1, 89, -1, -1], "children_right": [48, 25, 12, 9, 8, 7, -1, -1, -1, 11, -1, -1, 20, 17, 16, -1, -1, 19, -1, -1, 22, -1, 24, -1, -1, 39, 32, 29, -1, 31, -1, -1, 36, 35, -1, -1, 38, -1, -1, 45, 44, 43, -1, -1, -1, 47, -1, -1, 66, 65, 58, 55, 54, -1, -1, 57, -1, -1, 62, 61, -1, -1, 64, -1, -1, -1, 78, 73, 72, 71, -1, -1, -1, 77, 76, -1, -1, -1, 86, 83, 82, -1, -1, 85, -1, -1, 88, -1, 90, -1, -1], "feature": [15, 9, 10, 9, 5, 9, -2, -2, -2, 26, -2, -2, 10, 9, 16, -2, -2, 10, -2, -2, 26, -2, 10, -2, -2, 9, 16, 12, -2, 10, -2, -2, 10, 9, -2, -2, 17, -2, -2, 12, 4, 9, -2, -2, -2, 4, -2, -2, 12, 27, 12, 10, 12, -2, -2, 10, -2, -2, 16, 8, -2, -2, 26, -2, -2, -2, 9, 30, 3, 7, -2, -2, -2, 11, 12, -2, -2, -2, 4, 6, 11, -2, -2, 2, -2, -2, 10, -2, 17, -2, -2], "threshold": [6.72033429145813, 2216.0, 562.9849853515625, 566.0, 6.5, 197.5, -2.0, -2.0, -2.0, 42.0, -2.0, -2.0, 4036.2900390625, 1310.5, 0.0018790416652336717, -2.0, -2.0, 970.5749816894531, -2.0, -2.0, 39.5, -2.0, 5522.989990234375, -2.0, -2.0, 4968.0, 0.0017512434860691428, 1860.0151977539062, -2.0, 3142.800048828125, -2.0, -2.0, 1708.8200073242188, 4303.5, -2.0, -2.0, 0.0013149931910447776, -2.0, -2.0, 4607.40673828125, 88.73539733886719, 9388.5, -2.0, -2.0, -2.0, 86.35499954223633, -2.0, -2.0, 6405.638671875, 0.5, 1404.3621215820312, 9659.009765625, 665.2013854980469, -2.0, -2.0, 13372.64013671875, -2.0, -2.0, 0.0010265056625939906, 94.5, -2.0, -2.0, 85.0, -2.0, -2.0, -2.0, 6536.5, 0.5, 279.625, 4059400.75, -2.0, -2.0, -2.0, 1277940.9375, 8082.984619140625, -2.0, -2.0, -2.0, 169.18106842041016, 936128.5, 918878.65625, -2.0, -2.0, 1808.5499877929688, -2.0, -2.0, 12912.53515625, -2.0, 0.0009070445958059281, -2.0, -2.0], "value": [[[10.717532499999974]], [[-488.93414029411775]], [[-740.7732837313431]], [[-961.1710512765953]], [[-1065.0398364516127]], [[-1107.462290869565]], [[-1177.472211818182]], [[-1043.28653]], [[-943.0752799999999]], [[-759.9252799999997]], [[-797.6277799999999]], [[-722.2227800000001]], [[-621.7078231034483]], [[-666.8094466666666]], [[-721.7694845454545]], [[-654.32403]], [[-764.2351411111113]], [[-580.4436728571428]], [[-694.0411728571429]], [[-542.5778395238095]], [[-405.22003]], [[-248.04002999999997]], [[-483.81003]], [[-557.6980299999999]], [[-409.9220299999999]], [[-244.39468217391317]], [[-398.1322118181817]], [[-216.41175727272727]], [[-305.18402999999995]], [[-165.68474428571426]], [[-222.69602999999998]], [[-134.01180777777773]], [[-470.82039363636363]], [[-552.2735754545455]], [[-585.573405]], [[-463.47403]], [[-416.5182724242424]], [[-301.6120299999999]], [[-437.0372442857142]], [[-50.33255459016388]], [[-122.43882166666661]], [[-149.92712523809521]], [[-195.6995472413792]], [[-47.81941461538458]], [[69.9793033333334]], [[215.90597]], [[153.57722000000004]], [[315.63197]], [[268.11384878787896]], [[86.90990617021282]], [[103.16304581227445]], [[-41.00489956521736]], [[-118.65829470588233]], [[-218.45603]], [[-60.6363555813953]], [[179.01305333333337]], [[94.19263666666666]], [[229.90530333333342]], [[174.8573754054054]], [[201.89119012578632]], [[133.47830333333337]], [[243.3535457575758]], [[9.53520076923083]], [[63.450255714285774]], [[-216.90802999999997]], [[-813.5140299999999]], [[475.8354415447154]], [[348.75631883720934]], [[376.6037641176472]], [[391.4208906349207]], [[432.9491958064517]], [[351.19034500000004]], [[189.90797000000012]], [[243.5548588888889]], [[317.5575084615385]], [[284.18197]], [[338.41722000000004]], [[51.14797000000003]], [[544.14047]], [[599.1913271428573]], [[534.0525006122449]], [[447.88034500000003]], [[575.8329396969697]], [[690.3856842857143]], [[715.6311424137932]], [[568.3659700000001]], [[483.2947857894738]], [[634.35597]], [[467.969738115942]], [[549.23097]], [[450.8621103508773]]]}, {"children_left": [1, 2, 3, 4, 5, 6, -1, -1, 9, -1, -1, 12, 13, -1, -1, 16, -1, -1, 19, 20, 21, -1, -1, 24, -1, -1, 27, 28, -1, -1, 31, -1, -1, 34, 35, 36, 37, -1, -1, -1, 41, -1, -1, 44, 45, 46, -1, -1, 49, -1, -1, 52, 53, -1, -1, 56, -1, -1, 59, 60, 61, 62, 63, -1, -1, 66, -1, -1, 69, -1, -1, 72, 73, 74, -1, -1, 77, -1, -1, 80, -1, -1, 83, 84, 85, 86, -1, -1, -1, 90, 91, -1, -1, -1, 95, 96, 97, -1, -1, 100, -1, -1, 103, -1, -1], "children_right": [58, 33, 18, 11, 8, 7, -1, -1, 10, -1, -1, 15, 14, -1, -1, 17, -1, -1, 26, 23, 22, -1, -1, 25, -1, -1, 30, 29, -1, -1, 32, -1, -1, 43, 40, 39, 38, -1, -1, -1, 42, -1, -1, 51, 48, 47, -1, -1, 50, -1, -1, 55, 54, -1, -1, 57, -1, -1, 82, 71, 68, 65, 64, -1, -1, 67, -1, -1, 70, -1, -1, 79, 76, 75, -1, -1, 78, -1, -1, 81, -1, -1, 94, 89, 88, 87, -1, -1, -1, 93, 92, -1, -1, -1, 102, 99, 98, -1, -1, 101, -1, -1, 104, -1, -1], "feature": [16, 12, 10, 12, 16, 9, -2, -2, 14, -2, -2, 12, 15, -2, -2, 1, -2, -2, 10, 14, 17, -2, -2, 18, -2, -2, 4, 10, -2, -2, 3, -2, -2, 9, 31, 9, 3, -2, -2, -2, 9, -2, -2, 17, 16, 9, -2, -2, 4, -2, -2, 13, 26, -2, -2, 10, -2, -2, 9, 10, 9, 9, 3, -2, -2, 8, -2, -2, 9, -2, -2, 10, 9, 24, -2, -2, 10, -2, -2, 26, -2, -2, 12, 9, 15, 10, -2, -2, -2, 13, 31, -2, -2, -2, 12, 12, 1, -2, -2, 26, -2, -2, 11, -2, -2], "threshold": [0.0012123038759455085, 6405.638671875, 5395.2900390625, 1301.0276489257812, 0.0009020615834742785, 493.0, -2.0, -2.0, 6.416698932647705, -2.0, -2.0, 3115.913330078125, 6.870712757110596, -2.0, -2.0, 1039.5, -2.0, -2.0, 13592.4296875, 6.25285530090332, 0.002098915632814169, -2.0, -2.0, 0.5, -2.0, -2.0, 179.93087005615234, 18211.0595703125, -2.0, -2.0, 42.803571701049805, -2.0, -2.0, 6483.0, 0.5, 6287.0, 279.625, -2.0, -2.0, -2.0, 5154.0, -2.0, -2.0, 0.0010689620394259691, 0.0005461501714307815, 11863.0, -2.0, -2.0, 191.52143096923828, -2.0, -2.0, 2.5249279737472534, 90.5, -2.0, -2.0, 14451.5400390625, -2.0, -2.0, 2070.0, 493.62001037597656, 566.0, 210.5, 45.75, -2.0, -2.0, 17.5, -2.0, -2.0, 927.5, -2.0, -2.0, 4036.2900390625, 1310.5, 0.5, -2.0, -2.0, 993.6999816894531, -2.0, -2.0, 47.5, -2.0, -2.0, 2539.7427978515625, 4940.0, 6.544886589050293, 1721.9849853515625, -2.0, -2.0, -2.0, 2.4414010047912598, 0.5, -2.0, -2.0, -2.0, 4905.493896484375, 3762.4732666015625, 818.0, -2.0, -2.0, 52.0, -2.0, -2.0, 586179.8125, -2.0, -2.0], "value": [[[-12.108742776902334]], [[253.55252010102953]], [[78.67470234225196]], [[-50.356112961342326]], [[-176.13291063917717]], [[-80.5326613133721]], [[-143.51703118255813]], [[-17.548291444186063]], [[-329.09330956046506]], [[-377.61385726589145]], [[-183.53166644418602]], [[51.83753515189842]], [[5.139385549947478]], [[-141.5444577]], [[48.28169238816733]], [[154.57346427619055]], [[178.3896605380953]], [[118.84916988333345]], [[172.22204343735774]], [[129.09600652559652]], [[80.03995319865562]], [[-165.56257091212115]], [[99.6881551275178]], [[253.26914150941565]], [[224.9462810398663]], [[315.57943454242434]], [[275.9080470762734]], [[346.235357255267]], [[315.79304451911423]], [[395.70411545151524]], [[219.10521962400938]], [[191.90159702438675]], [[333.3604345424243]], [[458.07064595451504]], [[334.2839248273029]], [[307.3918074499533]], [[323.1631722858871]], [[338.94089111201345]], [[170.64522363333353]], [[105.51833754999998]], [[466.8236461870969]], [[407.70693896263447]], [[511.16117660544364]], [[525.2229195071858]], [[593.5450748293777]], [[502.60191901212136]], [[459.140447084109]], [[570.8985177561404]], [[682.0303075164376]], [[703.0458702487645]], [[573.4499000660818]], [[462.87895277568657]], [[420.21270869623896]], [[450.0433014196989]], [[231.2856214476608]], [[515.0265844283447]], [[412.6028808357143]], [[539.7495473644972]], [[-484.3954323376703]], [[-762.6932523771655]], [[-960.4391555333334]], [[-1051.2590472000002]], [[-1129.8368416230771]], [[-1064.4528956090908]], [[-1170.7018078818182]], [[-991.1701455823529]], [[-1021.4620737909089]], [[-935.6349438666666]], [[-778.7993721999999]], [[-811.95302095]], [[-740.9094879142857]], [[-654.1741591817073]], [[-691.6419230928573]], [[-737.8720081523807]], [[-674.4171579367151]], [[-794.0051448816237]], [[-583.7717246206348]], [[-683.1673682714286]], [[-522.605174681685]], [[-435.61220303333334]], [[-313.99231370000007]], [[-522.4835525571427]], [[-264.8685805052735]], [[-386.820425682026]], [[-440.12426740611556]], [[-465.4797956814986]], [[-549.4213612880102]], [[-417.51318676349206]], [[-196.0773077555554]], [[-205.58736382012128]], [[-268.1291736327159]], [[-312.81147897203056]], [[-210.68049533931142]], [[-94.40192415328612]], [[-1.8351889475714005]], [[-70.87539520331953]], [[-119.34242729750463]], [[-200.9405083462324]], [[-70.38357866826799]], [[12.210945529569292]], [[73.55632382370692]], [[-69.58289219594754]], [[199.97464472307695]], [[66.0701978]], [[283.66492404999997]]]}, {"children_left": [1, 2, 3, 4, 5, 6, -1, -1, 9, -1, -1, 12, -1, 14, -1, -1, 17, 18, 19, -1, -1, 22, -1, -1, 25, 26, -1, -1, 29, -1, -1, 32, 33, 34, 35, -1, -1, 38, -1, -1, 41, 42, -1, -1, -1, 46, 47, -1, -1, 50, 51, -1, -1, 54, -1, -1, 57, 58, 59, 60, 61, -1, -1, 64, -1, -1, 67, -1, -1, 70, 71, 72, -1, -1, 75, -1, -1, 78, -1, -1, 81, 82, 83, 84, -1, -1, -1, 88, 89, -1, -1, 92, -1, -1, 95, 96, 97, -1, -1, 100, -1, -1, 103, -1, -1], "children_right": [56, 31, 16, 11, 8, 7, -1, -1, 10, -1, -1, 13, -1, 15, -1, -1, 24, 21, 20, -1, -1, 23, -1, -1, 28, 27, -1, -1, 30, -1, -1, 45, 40, 37, 36, -1, -1, 39, -1, -1, 44, 43, -1, -1, -1, 49, 48, -1, -1, 53, 52, -1, -1, 55, -1, -1, 80, 69, 66, 63, 62, -1, -1, 65, -1, -1, 68, -1, -1, 77, 74, 73, -1, -1, 76, -1, -1, 79, -1, -1, 94, 87, 86, 85, -1, -1, -1, 91, 90, -1, -1, 93, -1, -1, 102, 99, 98, -1, -1, 101, -1, -1, 104, -1, -1], "feature": [16, 12, 12, 10, 12, 4, -2, -2, 9, -2, -2, 10, -2, 1, -2, -2, 10, 12, 16, -2, -2, 6, -2, -2, 10, 14, -2, -2, 4, -2, -2, 9, 30, 3, 9, -2, -2, 3, -2, -2, 1, 16, -2, -2, -2, 11, 0, -2, -2, 4, 17, -2, -2, 10, -2, -2, 9, 10, 9, 9, 13, -2, -2, 1, -2, -2, 17, -2, -2, 10, 9, 0, -2, -2, 7, -2, -2, 10, -2, -2, 12, 9, 15, 10, -2, -2, -2, 5, 4, -2, -2, 11, -2, -2, 12, 12, 10, -2, -2, 4, -2, -2, 10, -2, -2], "threshold": [0.0012123038759455085, 6405.638671875, 1253.3878173828125, 9401.18994140625, 669.8632202148438, 400.51666259765625, -2.0, -2.0, 853.5, -2.0, -2.0, 11236.23974609375, -2.0, 48.0, -2.0, -2.0, 5494.43017578125, 3213.0250244140625, 0.0011326815001666546, -2.0, -2.0, 1080670.5, -2.0, -2.0, 13199.18994140625, 6.4536237716674805, -2.0, -2.0, 176.19470977783203, -2.0, -2.0, 6998.0, 0.5, 206.6500015258789, 5044.0, -2.0, -2.0, 255.875, -2.0, -2.0, 694.0, 0.0004930873983539641, -2.0, -2.0, -2.0, 876054.5, 11.5, -2.0, -2.0, 156.53880310058594, 0.0009799308609217405, -2.0, -2.0, 13399.7548828125, -2.0, -2.0, 2070.0, 487.99501037597656, 499.0, 222.5, 0.8958797454833984, -2.0, -2.0, 282.7850036621094, -2.0, -2.0, 0.001298099639825523, -2.0, -2.0, 3160.6500244140625, 787.5, 7.5, -2.0, -2.0, 351812.0, -2.0, -2.0, 5891.2099609375, -2.0, -2.0, 2550.7723388671875, 5253.5, 6.585020065307617, 1656.0999755859375, -2.0, -2.0, -2.0, 110.5, 21.698166847229004, -2.0, -2.0, 151407.390625, -2.0, -2.0, 4905.493896484375, 3762.4732666015625, 4029.7349853515625, -2.0, -2.0, 88.73539733886719, -2.0, -2.0, 5797.780029296875, -2.0, -2.0], "value": [[[-5.892508016267657]], [[256.8938191277726]], [[80.56516587363703]], [[-83.85764729497824]], [[-161.4207157963667]], [[-290.33031584432456]], [[-185.42111208652284]], [[-357.77194683148275]], [[-74.21716282274808]], [[-14.713480872135221]], [[-217.02599950421896]], [[148.83155820918702]], [[41.54045941539143]], [[187.14980777839972]], [[237.58468902301811]], [[136.71492653378135]], [[143.9973171468084]], [[44.5088626412693]], [[3.295663620184282]], [[27.787793711005417]], [[-217.13350719720592]], [[158.9899710331721]], [[183.30631837881523]], [[95.7674679345001]], [[196.44084355282894]], [[160.1007764942781]], [[121.5846122055905]], [[272.3000376830634]], [[280.3025367648694]], [[348.8685328594694]], [[232.60445252514768]], [[460.8672188666658]], [[361.92449595426524]], [[394.37627461726044]], [[425.3767813613303]], [[375.86390731464184]], [[466.9037079811336]], [[283.9369693415113]], [[324.9344062275895]], [[193.7426081921392]], [[274.1845017913517]], [[317.9209654935201]], [[266.67310800884474]], [[353.4002514444492]], [[81.7440615018108]], [[533.6192210081365]], [[376.2294121479098]], [[289.3449649553762]], [[443.8062044087691]], [[554.6045288561668]], [[636.8928240908728]], [[730.9232146085584]], [[589.8776288320303]], [[493.78274542181896]], [[594.1094995190953]], [[480.6251383270941]], [[-465.54281906890094]], [[-758.7577817840486]], [[-968.2224899489618]], [[-1058.3172085772424]], [[-1119.498473206846]], [[-1160.5547898029997]], [[-1053.808366653]], [[-992.037505228505]], [[-948.7267998282524]], [[-1035.3482106287574]], [[-794.9634156638059]], [[-768.0216361226428]], [[-811.8020278770327]], [[-666.203608408855]], [[-708.7263330926542]], [[-793.077472075642]], [[-822.9358620713153]], [[-648.761920429889]], [[-631.0344945556916]], [[-654.6783799708634]], [[-474.9848508155577]], [[-427.42215441521387]], [[-496.7668005171334]], [[-316.4707206521427]], [[-247.8263198073535]], [[-372.7160002885818]], [[-432.6172787692216]], [[-455.97007261615664]], [[-537.6585746628003]], [[-409.2909285895031]], [[-132.92309106688876]], [[-195.1514962209711]], [[-258.8612179570415]], [[-225.3247517227892]], [[-332.6414436723968]], [[-110.2052005728774]], [[-54.11405634706121]], [[-150.27030359131754]], [[-0.2771317106328845]], [[-77.60654282866929]], [[-125.68432630575283]], [[-66.7019088699939]], [[-200.75285758762783]], [[-2.4850061457262314]], [[-45.67781375401459]], [[92.53917059250816]], [[211.08992534533328]], [[137.33877306366662]], [[260.2573601997777]]]}, {"children_left": [1, 2, 3, 4, 5, 6, -1, -1, 9, -1, -1, 12, 13, -1, -1, 16, -1, -1, -1, 20, 21, 22, -1, 24, -1, -1, 27, 28, -1, -1, 31, -1, -1, 34, 35, 36, -1, -1, 39, -1, -1, 42, 43, -1, -1, 46, -1, -1, 49, 50, 51, 52, 53, -1, -1, -1, 57, 58, -1, -1, -1, 62, 63, -1, 65, -1, -1, -1, 69, 70, 71, 72, -1, -1, 75, -1, -1, 78, 79, -1, -1, 82, -1, -1, 85, 86, 87, -1, -1, 90, -1, -1, 93, 94, -1, -1, 97, -1, -1], "children_right": [48, 19, 18, 11, 8, 7, -1, -1, 10, -1, -1, 15, 14, -1, -1, 17, -1, -1, -1, 33, 26, 23, -1, 25, -1, -1, 30, 29, -1, -1, 32, -1, -1, 41, 38, 37, -1, -1, 40, -1, -1, 45, 44, -1, -1, 47, -1, -1, 68, 61, 56, 55, 54, -1, -1, -1, 60, 59, -1, -1, -1, 67, 64, -1, 66, -1, -1, -1, 84, 77, 74, 73, -1, -1, 76, -1, -1, 81, 80, -1, -1, 83, -1, -1, 92, 89, 88, -1, -1, 91, -1, -1, 96, 95, -1, -1, 98, -1, -1], "feature": [16, 12, 27, 10, 12, 15, -2, -2, 11, -2, -2, 16, 0, -2, -2, 26, -2, -2, -2, 9, 16, 10, -2, 30, -2, -2, 9, 26, -2, -2, 31, -2, -2, 14, 4, 16, -2, -2, 10, -2, -2, 7, 2, -2, -2, 4, -2, -2, 9, 10, 10, 9, 9, -2, -2, -2, 27, 12, -2, -2, -2, 0, 26, -2, 26, -2, -2, -2, 9, 7, 12, 5, -2, -2, 12, -2, -2, 12, 2, -2, -2, 16, -2, -2, 12, 9, 2, -2, -2, 9, -2, -2, 11, 26, -2, -2, 10, -2, -2], "threshold": [0.001190505048725754, 6405.638671875, 0.5, 5541.75, 983.21630859375, 6.987520933151245, -2.0, -2.0, 730065.1875, -2.0, -2.0, 0.0010265056625939906, 10.5, -2.0, -2.0, 61.5, -2.0, -2.0, -2.0, 6483.0, 0.0004780115414177999, 9172.1201171875, -2.0, 0.5, -2.0, -2.0, 5044.0, 54.0, -2.0, -2.0, 0.5, -2.0, -2.0, 6.901223659515381, 165.87847137451172, 0.0009775674261618406, -2.0, -2.0, 14345.52001953125, -2.0, -2.0, 2581817.5, 1019.6400146484375, -2.0, -2.0, 209.08966064453125, -2.0, -2.0, 1281.1799926757812, 2098.1549072265625, 312.22999572753906, 533.5, 209.0, -2.0, -2.0, -2.0, 0.5, 261.5486831665039, -2.0, -2.0, -2.0, 9.5, 56.0, -2.0, 78.0, -2.0, -2.0, -2.0, 5023.5, 349925.5, 1240.9625854492188, 72.5, -2.0, -2.0, 2021.3138427734375, -2.0, -2.0, 1670.9047241210938, 724.7000122070312, -2.0, -2.0, 0.0014001521631143987, -2.0, -2.0, 3762.4732666015625, 8050.0, 409.6000061035156, -2.0, -2.0, 11204.0, -2.0, -2.0, 586888.90625, 53.0, -2.0, -2.0, 5627.080078125, -2.0, -2.0], "value": [[[7.024305052654346]], [[259.89452324076774]], [[86.09605860722601]], [[102.33743123573522]], [[-20.447194200544143]], [[-170.82123073030505]], [[-258.3992475871484]], [[-113.70513278018983]], [[52.81195180113428]], [[-40.39922185268837]], [[96.77948654350342]], [[192.4831056066745]], [[208.69749915824272]], [[186.5755937132644]], [[289.33541255445357]], [[25.706486219117135]], [[104.40754207622321]], [[-115.95541432367379]], [[-803.9311614350784]], [[461.0968951609264]], [[342.38208897968263]], [[293.4321373410602]], [[209.68985589678817]], [[307.3891842484389]], [[327.47368342414416]], [[241.39725838540704]], [[378.8341806254652]], [[336.33865982947896]], [[381.3367295615888]], [[282.34097615094714]], [[416.23023892593307]], [[392.4700525248373]], [[491.47082919606993]], [[522.320883254398]], [[476.7808614927319]], [[519.4222697682167]], [[549.6960414251489]], [[404.38193747187427]], [[438.1622275828591]], [[547.9708672605859]], [[426.72382761642916]], [[601.6233349428162]], [[718.5923122357058]], [[605.5661500703948]], [[748.336039121314]], [[519.0569980301884]], [[568.2634206760769]], [[480.2098222571185]], [[-462.5918144395565]], [[-793.1251418935774]], [[-869.6655939603701]], [[-1006.0870509555217]], [[-1057.7340343416795]], [[-1126.0821248430564]], [[-989.3859438403033]], [[-799.4991174108902]], [[-793.8758956297297]], [[-761.856475312376]], [[-814.3386666933397]], [[-674.3861563441028]], [[-1050.031258168562]], [[-549.5873398628738]], [[-627.8747955883936]], [[-568.9157102567566]], [[-669.1461553205395]], [[-688.9634756423502]], [[-649.3288349987291]], [[-283.40999039610625]], [[-300.8414627067379]], [[-428.1038354033023]], [[-487.88223085828685]], [[-539.6761187069151]], [[-568.0534758327013]], [[-434.8981847040121]], [[-389.1501321468387]], [[-411.17901391175906]], [[-293.6916444988509]], [[-236.4007051511107]], [[-335.39939121590015]], [[-408.9754109727858]], [[-261.82337145901454]], [[-184.29613353806366]], [[-128.29316913728275]], [[-246.52164953893123]], [[-65.59889499490706]], [[-181.6017504188036]], [[-249.66196099851342]], [[-271.8364570786091]], [[-174.2686743261882]], [[-81.7801082352292]], [[-123.3281195897426]], [[1.3159144737975565]], [[82.40474813213339]], [[-12.581549857127508]], [[55.00159448787008]], [[-113.9562663746239]], [[184.17578169205578]], [[97.26330189231615]], [[271.0882614917954]]]}, {"children_left": [1, 2, 3, 4, 5, 6, -1, -1, 9, -1, -1, 12, -1, 14, -1, -1, 17, 18, 19, -1, -1, 22, -1, -1, 25, -1, 27, -1, -1, 30, 31, 32, 33, -1, -1, 36, -1, -1, -1, 40, 41, 42, -1, -1, 45, -1, -1, 48, 49, -1, -1, 52, -1, -1, 55, 56, 57, 58, 59, -1, -1, 62, -1, -1, 65, 66, -1, -1, -1, 70, 71, 72, -1, -1, 75, -1, -1, 78, -1, 80, -1, -1, 83, 84, 85, 86, -1, -1, 89, -1, -1, 92, 93, -1, -1, -1, 97, 98, 99, -1, -1, -1, 103, -1, -1], "children_right": [54, 29, 16, 11, 8, 7, -1, -1, 10, -1, -1, 13, -1, 15, -1, -1, 24, 21, 20, -1, -1, 23, -1, -1, 26, -1, 28, -1, -1, 39, 38, 35, 34, -1, -1, 37, -1, -1, -1, 47, 44, 43, -1, -1, 46, -1, -1, 51, 50, -1, -1, 53, -1, -1, 82, 69, 64, 61, 60, -1, -1, 63, -1, -1, 68, 67, -1, -1, -1, 77, 74, 73, -1, -1, 76, -1, -1, 79, -1, 81, -1, -1, 96, 91, 88, 87, -1, -1, 90, -1, -1, 95, 94, -1, -1, -1, 102, 101, 100, -1, -1, -1, 104, -1, -1], "feature": [16, 12, 12, 10, 12, 11, -2, -2, 25, -2, -2, 10, -2, 13, -2, -2, 10, 12, 16, -2, -2, 17, -2, -2, 7, -2, 4, -2, -2, 9, 9, 16, 8, -2, -2, 9, -2, -2, -2, 17, 7, 4, -2, -2, 9, -2, -2, 16, 4, -2, -2, 12, -2, -2, 9, 9, 10, 9, 5, -2, -2, 17, -2, -2, 5, 27, -2, -2, -2, 15, 10, 9, -2, -2, 13, -2, -2, 16, -2, 4, -2, -2, 12, 9, 16, 11, -2, -2, 17, -2, -2, 9, 13, -2, -2, -2, 11, 26, 10, -2, -2, -2, 10, -2, -2], "threshold": [0.0012061353190802038, 6405.638671875, 1338.1693115234375, 9442.66015625, 665.2013854980469, 154718.234375, -2.0, -2.0, 0.5, -2.0, -2.0, 11236.23974609375, -2.0, 2.2499048709869385, -2.0, -2.0, 5494.43017578125, 3115.913330078125, 0.001037747715599835, -2.0, -2.0, 0.0009611742862034589, -2.0, -2.0, 940793.59375, -2.0, 374.05299377441406, -2.0, -2.0, 6483.0, 6261.0, 0.0004853410500800237, 1529.5, -2.0, -2.0, 5181.0, -2.0, -2.0, -2.0, 0.0010689620394259691, 3031501.125, 170.5100860595703, -2.0, -2.0, 11863.0, -2.0, -2.0, 0.0008445451385341585, 152.3441619873047, -2.0, -2.0, 9460.2021484375, -2.0, -2.0, 3797.5, 1310.5, 469.68499755859375, 645.5, 6.5, -2.0, -2.0, 0.001298099639825523, -2.0, -2.0, 72.5, 0.5, -2.0, -2.0, -2.0, 6.348836898803711, 1468.530029296875, 1947.0, -2.0, -2.0, 2.5249279737472534, -2.0, -2.0, 0.0014375862083397806, -2.0, 151.0487518310547, -2.0, -2.0, 3394.2069091796875, 6212.0, 0.00200393155682832, 424519.359375, -2.0, -2.0, 0.000993707508314401, -2.0, -2.0, 12350.0, 2.602003335952759, -2.0, -2.0, -2.0, 586179.8125, 53.0, 5204.22998046875, -2.0, -2.0, -2.0, 5274.419921875, -2.0, -2.0], "value": [[[12.817934664699552]], [[255.82743589394508]], [[80.73842280711783]], [[-68.04690683213897]], [[-142.84353051235408]], [[-262.88042490076236]], [[-192.13772498017775]], [[-357.2040247948753]], [[-58.81770444046833]], [[-16.542843522163206]], [[-185.64228719538372]], [[143.876860261804]], [[43.251301008610916]], [[177.4187133462017]], [[113.83962943614397]], [[201.8722071577624]], [[153.16302771088297]], [[60.54758297992881]], [[9.097161949092293]], [[48.57780590438264]], [[-148.8254138720691]], [[150.02657607703574]], [[116.55645863972006]], [[167.8773053769375]], [[199.47075007636022]], [[14.895206550514924]], [[213.66886880911755]], [[240.76919900633672]], [[131.43338407272833]], [[449.52827320653716]], [[331.4834927536433]], [[344.4652526793006]], [[298.5187375560412]], [[277.1694677250622]], [[412.3815099879295]], [[383.26453211671935]], [[344.0415868502869]], [[428.09075527835677]], [[115.98627798773168]], [[512.1062291092762]], [[575.8497077760511]], [[660.8099668527043]], [[684.5351313530908]], [[562.9436632886091]], [[490.889448699398]], [[461.46199459280655]], [[541.8970358174902]], [[449.8804523155198]], [[471.20702542276683]], [[566.7351351934748]], [[431.4036463516386]], [[359.2425166097199]], [[416.89148513779577]], [[232.41478584795306]], [[-477.786152722645]], [[-646.5788726784987]], [[-795.7024466730818]], [[-958.7328099841279]], [[-1026.566958146321]], [[-1069.7508788970456]], [[-924.005146363349]], [[-775.5806099462068]], [[-753.8611063537081]], [[-797.3001135387054]], [[-689.8757196115258]], [[-736.1275727546899]], [[-707.085998480464]], [[-985.8851115130307]], [[-443.1991695146519]], [[-475.6323366359274]], [[-524.7553804705109]], [[-604.7682630734415]], [[-655.404202862064]], [[-568.5997346529967]], [[-472.8551322956372]], [[-494.2052287171482]], [[-362.5463007844963]], [[-332.9415902592799]], [[-247.76834973047184]], [[-396.82152065588593]], [[-326.1413921010445]], [[-495.7737006326639]], [[-143.99380764140707]], [[-241.92256706019526]], [[-326.8107135028313]], [[-168.61279391039324]], [[-232.53799390795064]], [[-104.6875939128358]], [[-402.7457149072015]], [[-511.96209420948696]], [[-375.4416200816301]], [[-116.28811032509391]], [[-158.7984638614912]], [[-189.8025954093052]], [[-65.78606921804916]], [[53.75330382049528]], [[80.87963991284741]], [[-3.740062057501163]], [[39.24142109842951]], [[-22.84970260908285]], [[101.33254480594186]], [[-75.37586731738561]], [[203.96284277880898]], [[121.97063462800652]], [[272.28968290447773]]]}, {"children_left": [1, 2, 3, 4, 5, 6, -1, -1, 9, -1, -1, 12, -1, 14, -1, -1, 17, 18, 19, -1, -1, 22, -1, -1, 25, 26, -1, -1, 29, -1, -1, 32, 33, 34, 35, -1, -1, 38, -1, -1, 41, -1, -1, 44, 45, 46, -1, -1, 49, -1, -1, 52, 53, -1, -1, 56, -1, -1, 59, 60, 61, 62, 63, -1, -1, 66, -1, -1, 69, -1, -1, 72, 73, 74, -1, -1, 77, -1, -1, -1, 81, 82, 83, 84, -1, -1, 87, -1, -1, 90, 91, -1, -1, -1, 95, 96, 97, -1, -1, 100, -1, -1, 103, -1, 105, -1, -1], "children_right": [58, 31, 16, 11, 8, 7, -1, -1, 10, -1, -1, 13, -1, 15, -1, -1, 24, 21, 20, -1, -1, 23, -1, -1, 28, 27, -1, -1, 30, -1, -1, 43, 40, 37, 36, -1, -1, 39, -1, -1, 42, -1, -1, 51, 48, 47, -1, -1, 50, -1, -1, 55, 54, -1, -1, 57, -1, -1, 80, 71, 68, 65, 64, -1, -1, 67, -1, -1, 70, -1, -1, 79, 76, 75, -1, -1, 78, -1, -1, -1, 94, 89, 86, 85, -1, -1, 88, -1, -1, 93, 92, -1, -1, -1, 102, 99, 98, -1, -1, 101, -1, -1, 104, -1, 106, -1, -1], "feature": [16, 12, 12, 10, 2, 4, -2, -2, 17, -2, -2, 10, -2, 26, -2, -2, 10, 12, 15, -2, -2, 26, -2, -2, 10, 17, -2, -2, 4, -2, -2, 9, 31, 4, 16, -2, -2, 17, -2, -2, 9, -2, -2, 4, 11, 15, -2, -2, 4, -2, -2, 10, 4, -2, -2, 9, -2, -2, 9, 10, 9, 9, 13, -2, -2, 13, -2, -2, 10, -2, -2, 10, 12, 5, -2, -2, 12, -2, -2, -2, 12, 9, 12, 13, -2, -2, 16, -2, -2, 9, 13, -2, -2, -2, 12, 26, 5, -2, -2, 10, -2, -2, 11, -2, 10, -2, -2], "threshold": [0.0011899571400135756, 6405.638671875, 1283.961669921875, 9442.66015625, 1082.0650024414062, 255.90750122070312, -2.0, -2.0, 0.013992172200232744, -2.0, -2.0, 11236.23974609375, -2.0, 23.0, -2.0, -2.0, 5521.6650390625, 3115.913330078125, 6.870712757110596, -2.0, -2.0, 62.0, -2.0, -2.0, 13199.18994140625, 0.0015493437531404197, -2.0, -2.0, 170.74163818359375, -2.0, -2.0, 6483.0, 0.5, 179.5754165649414, 0.0005237167060840875, -2.0, -2.0, 0.0016051405691541731, -2.0, -2.0, 5154.0, -2.0, -2.0, 154.84435272216797, 911519.0625, 7.07642674446106, -2.0, -2.0, 105.12662887573242, -2.0, -2.0, 12481.46533203125, 215.28571319580078, -2.0, -2.0, 7334.5, -2.0, -2.0, 2070.0, 487.99501037597656, 566.0, 210.5, 0.8958797454833984, -2.0, -2.0, 1.2424533367156982, -2.0, -2.0, 150.76000213623047, -2.0, -2.0, 6100.909912109375, 433.62757873535156, 72.5, -2.0, -2.0, 893.2606811523438, -2.0, -2.0, -2.0, 2569.7430419921875, 4940.0, 1495.7684326171875, 1.8688347935676575, -2.0, -2.0, 0.0013356119161471725, -2.0, -2.0, 11204.0, 2.4414010047912598, -2.0, -2.0, -2.0, 4905.493896484375, 74.0, 132.5, -2.0, -2.0, 5416.655029296875, -2.0, -2.0, 586179.8125, -2.0, 6010.0, -2.0, -2.0], "value": [[[-6.011836367847584]], [[247.31955673945848]], [[75.89074502116199]], [[-83.68448122001443]], [[-157.43383723842794]], [[-261.55963593560807]], [[-162.84233726384727]], [[-327.3711683834486]], [[-96.89558218192792]], [[-63.346449499519274]], [[-351.86899056823364]], [[144.26807374599096]], [[42.818787998524876]], [[182.31155590129072]], [[253.04425456529916]], [[150.16032923583236]], [[149.54084944016648]], [[53.25443000953588]], [[-0.23259941525157576]], [[-122.07077750220398]], [[32.018683019529945]], [[149.08535772894675]], [[165.17406784718057]], [[116.90793749247902]], [[199.94077211088728]], [[168.11068081438341]], [[273.94513856342695]], [[136.3603434896704]], [[278.225591245532]], [[337.9531591449369]], [[237.50224949593758]], [[462.5495626412839]], [[354.17739868541827]], [[336.25008001406803]], [[416.9362957269078]], [[473.46938403513286]], [[360.4032074186829]], [[312.71660043115645]], [[339.2148302097321]], [[259.72014087400527]], [[439.6769185026274]], [[393.42510491010916]], [[479.32133015335734]], [[516.0226698563497]], [[584.2929124227007]], [[456.35287290954295]], [[408.62875240209416]], [[535.893073755291]], [[631.8985085206198]], [[773.0820922566566]], [[604.4461450163903]], [[472.71144070135307]], [[591.9056592745562]], [[547.5333219293711]], [[645.1524640887785]], [[456.72197235616716]], [[394.73729992735485]], [[474.1551614767705]], [[-456.3787574475027]], [[-724.4180258308043]], [[-924.711289408985]], [[-1008.6331719642459]], [[-1078.9559164208747]], [[-1119.2684118675686]], [[-1022.518422795503]], [[-958.9935876419192]], [[-987.0061135479119]], [[-907.6372901475996]], [[-750.8731041159442]], [[-712.1094758569591]], [[-772.4084531487139]], [[-620.651636266204]], [[-646.2726257240865]], [[-712.4273860791252]], [[-743.8132660371239]], [[-497.95720636613504]], [[-545.9734729277369]], [[-574.6969619031431]], [[-396.6113302556238]], [[-220.96420072324017]], [[-247.9037709271572]], [[-350.05020924090536]], [[-404.1957767477176]], [[-482.701207307869]], [[-536.4203110741189]], [[-438.93008572055464]], [[-291.05559741102877]], [[-101.07669809707595]], [[-331.76536154973286]], [[-200.24747247205852]], [[-243.77577817870267]], [[-263.4857593712007]], [[-181.3608377357925]], [[17.3940560611627]], [[-12.341576448514095]], [[-98.18391878079007]], [[-50.82214957555615]], [[-92.12017407988013]], [[52.42291168525378]], [[-181.0670148899494]], [[-140.83318473626446]], [[-237.39437710510828]], [[164.70825461180507]], [[35.31412193665419]], [[223.52376946414643]], [[170.87055116133092]], [[267.4014513831593]]]}, {"children_left": [1, 2, 3, 4, 5, 6, -1, -1, 9, -1, -1, 12, -1, 14, -1, -1, 17, 18, 19, -1, -1, 22, -1, -1, 25, 26, -1, -1, 29, -1, -1, 32, 33, 34, 35, -1, -1, -1, 39, 40, -1, -1, 43, -1, -1, 46, 47, 48, -1, -1, 51, -1, -1, 54, 55, -1, -1, 58, -1, -1, 61, 62, 63, 64, 65, -1, -1, 68, -1, -1, 71, 72, -1, -1, -1, 76, 77, 78, -1, -1, 81, -1, -1, 84, 85, -1, -1, -1, 89, 90, 91, -1, 93, -1, -1, 96, 97, -1, -1, 100, -1, -1, 103, 104, 105, -1, -1, 108, -1, -1, 111, -1, -1], "children_right": [60, 31, 16, 11, 8, 7, -1, -1, 10, -1, -1, 13, -1, 15, -1, -1, 24, 21, 20, -1, -1, 23, -1, -1, 28, 27, -1, -1, 30, -1, -1, 45, 38, 37, 36, -1, -1, -1, 42, 41, -1, -1, 44, -1, -1, 53, 50, 49, -1, -1, 52, -1, -1, 57, 56, -1, -1, 59, -1, -1, 88, 75, 70, 67, 66, -1, -1, 69, -1, -1, 74, 73, -1, -1, -1, 83, 80, 79, -1, -1, 82, -1, -1, 87, 86, -1, -1, -1, 102, 95, 92, -1, 94, -1, -1, 99, 98, -1, -1, 101, -1, -1, 110, 107, 106, -1, -1, 109, -1, -1, 112, -1, -1], "feature": [16, 12, 12, 10, 7, 10, -2, -2, 12, -2, -2, 10, -2, 26, -2, -2, 10, 12, 17, -2, -2, 3, -2, -2, 11, 10, -2, -2, 4, -2, -2, 9, 4, 5, 11, -2, -2, -2, 31, 26, -2, -2, 9, -2, -2, 6, 4, 16, -2, -2, 26, -2, -2, 4, 16, -2, -2, 10, -2, -2, 9, 10, 9, 9, 10, -2, -2, 26, -2, -2, 10, 9, -2, -2, -2, 10, 9, 24, -2, -2, 10, -2, -2, 10, 9, -2, -2, -2, 12, 9, 16, -2, 10, -2, -2, 8, 30, -2, -2, 4, -2, -2, 12, 26, 12, -2, -2, 9, -2, -2, 10, -2, -2], "threshold": [0.0012061353190802038, 6405.638671875, 1253.3878173828125, 9442.66015625, 1170933.625, 4311.35498046875, -2.0, -2.0, 669.8632202148438, -2.0, -2.0, 11236.23974609375, -2.0, 23.0, -2.0, -2.0, 5494.43017578125, 2694.2342529296875, 0.0009398703696206212, -2.0, -2.0, 474.75, -2.0, -2.0, 713591.1875, 13199.18994140625, -2.0, -2.0, 491.5050048828125, -2.0, -2.0, 6998.0, 165.69133758544922, 156.5, 778153.125, -2.0, -2.0, -2.0, 0.5, 93.0, -2.0, -2.0, 5154.0, -2.0, -2.0, 990026.0, 154.1470184326172, 0.0008488629246130586, -2.0, -2.0, 10.0, -2.0, -2.0, 149.9646453857422, 0.0009912416571751237, -2.0, -2.0, 12618.71533203125, -2.0, -2.0, 2305.5, 597.2850036621094, 539.5, 197.5, 9.744999885559082, -2.0, -2.0, 52.0, -2.0, -2.0, 486.1750030517578, 1089.0, -2.0, -2.0, -2.0, 3160.6500244140625, 1310.5, 0.5, -2.0, -2.0, 970.5749816894531, -2.0, -2.0, 6118.260009765625, 1278.239990234375, -2.0, -2.0, -2.0, 2550.7723388671875, 5572.0, 0.0014122798456810415, -2.0, 1673.2649536132812, -2.0, -2.0, 1165.5, 0.5, -2.0, -2.0, 13.3282790184021, -2.0, -2.0, 4905.493896484375, 75.5, 3716.5262451171875, -2.0, -2.0, 5501.5, -2.0, -2.0, 5526.719970703125, -2.0, -2.0], "value": [[[-2.5110276159098732]], [[250.96875298501718]], [[78.33016486570745]], [[-75.3032407051475]], [[-155.76024954677897]], [[-269.3280667643529]], [[-328.7402621907163]], [[-157.10503095899966]], [[-75.95583744794334]], [[-210.37828348439166]], [[-11.433063350448146]], [[145.07900090453896]], [[42.39060011853966]], [[181.32196588783273]], [[250.51381201964622]], [[152.49202999957717]], [[150.137082686868]], [[72.89049308586914]], [[5.127432165338883]], [[-130.9798616863755]], [[32.34889093568176]], [[142.9902112795211]], [[128.08037738557982]], [[214.55741397043926]], [[186.59747297853949]], [[150.75357757338128]], [[99.07069114620144]], [[256.1071537518632]], [[248.15546726131106]], [[287.3076583264793]], [[137.2242592433341]], [[443.5820537792887]], [[338.5840330218651]], [[451.00121183898807]], [[411.7977731265185]], [[353.7513125843449]], [[444.0458067610593]], [[529.4080892639274]], [[309.07452358237026]], [[282.3378662369897]], [[297.89227534437185]], [[95.6849569484049]], [[424.9333720790191]], [[369.8920300996003]], [[473.0945463110105]], [[518.7934019814146]], [[475.11581816004104]], [[514.0643099995257]], [[554.7303798159527]], [[423.34769271672695]], [[438.7638924431885]], [[371.5951986029612]], [[447.1599791732168]], [[589.1628425825165]], [[684.0541005159289]], [[746.186389689374]], [[518.3679960534091]], [[523.9251027532956]], [[621.7188852942718]], [[496.54284364182234]], [[-453.141748684225]], [[-710.8322052852046]], [[-896.0052076913456]], [[-1010.740547377994]], [[-1082.2282361529203]], [[-1132.1892183978828]], [[-1046.5418202636615]], [[-963.0820881947095]], [[-995.5861783528188]], [[-912.004232231967]], [[-723.9021981613721]], [[-747.3101558460434]], [[-771.1639859626308]], [[-711.5294106711625]], [[-653.6783251073579]], [[-601.9069097521806]], [[-654.230796994231]], [[-730.3025376209129]], [[-644.63162775794]], [[-783.8468562852712]], [[-540.1231860542083]], [[-634.4176850725277]], [[-505.3831074685116]], [[-431.8542762155171]], [[-498.1490196513187]], [[-548.4940157340961]], [[-422.63152552715263]], [[-232.97004590811213]], [[-225.7678163892429]], [[-341.85379970502834]], [[-404.04584186083264]], [[-122.79823674792601]], [[-432.99780121069045]], [[-525.1429635486539]], [[-382.73680357180143]], [[-155.27767323761552]], [[-232.6335271432422]], [[-168.08943600026993]], [[-297.17761828621445]], [[-56.824768266817976]], [[30.854567809401125]], [[-129.89088166366722]], [[-6.737659189647843]], [[-78.03952036141044]], [[-36.69012409304151]], [[-83.49852578061692]], [[38.20331860707913]], [[-160.73831289814825]], [[-215.87194897115864]], [[-113.48091054985363]], [[191.88895407454788]], [[62.6803711125026]], [[263.6715001645731]]]}, {"children_left": [1, 2, 3, 4, 5, 6, -1, -1, -1, 10, 11, -1, -1, 14, -1, -1, 17, 18, 19, -1, -1, 22, -1, -1, 25, -1, -1, 28, 29, 30, 31, -1, -1, 34, -1, -1, 37, 38, -1, -1, 41, -1, -1, 44, 45, 46, -1, -1, 49, -1, -1, 52, 53, -1, -1, 56, -1, -1, 59, 60, 61, 62, 63, -1, -1, 66, -1, -1, 69, 70, -1, -1, 73, -1, -1, -1, 77, 78, 79, 80, -1, -1, -1, -1, 85, 86, 87, -1, -1, 90, -1, -1, 93, 94, -1, -1, -1], "children_right": [58, 27, 16, 9, 8, 7, -1, -1, -1, 13, 12, -1, -1, 15, -1, -1, 24, 21, 20, -1, -1, 23, -1, -1, 26, -1, -1, 43, 36, 33, 32, -1, -1, 35, -1, -1, 40, 39, -1, -1, 42, -1, -1, 51, 48, 47, -1, -1, 50, -1, -1, 55, 54, -1, -1, 57, -1, -1, 76, 75, 68, 65, 64, -1, -1, 67, -1, -1, 72, 71, -1, -1, 74, -1, -1, -1, 84, 83, 82, 81, -1, -1, -1, -1, 92, 89, 88, -1, -1, 91, -1, -1, 96, 95, -1, -1, -1], "feature": [15, 9, 12, 12, 5, 17, -2, -2, -2, 4, 7, -2, -2, 26, -2, -2, 10, 9, 2, -2, -2, 11, -2, -2, 26, -2, -2, 9, 12, 10, 9, -2, -2, 12, -2, -2, 15, 18, -2, -2, 26, -2, -2, 12, 17, 3, -2, -2, 8, -2, -2, 11, 16, -2, -2, 12, -2, -2, 12, 27, 10, 12, 16, -2, -2, 11, -2, -2, 10, 12, -2, -2, 9, -2, -2, -2, 9, 9, 3, 16, -2, -2, -2, -2, 17, 4, 15, -2, -2, 11, -2, -2, 26, 16, -2, -2, -2], "threshold": [6.72033429145813, 2070.0, 138.93893432617188, 7.660130023956299, 6.5, 0.012307459954172373, -2.0, -2.0, -2.0, 65.90499877929688, 1712.768814086914, -2.0, -2.0, 57.5, -2.0, -2.0, 3160.6500244140625, 1310.5, 588.27001953125, -2.0, -2.0, 80673.93359375, -2.0, -2.0, 39.5, -2.0, -2.0, 4945.5, 1901.1417236328125, 1721.9849853515625, 4303.5, -2.0, -2.0, 1153.2166137695312, -2.0, -2.0, 6.504384756088257, 0.5, -2.0, -2.0, 30.5, -2.0, -2.0, 3762.4732666015625, 0.000947512045968324, 116.8499984741211, -2.0, -2.0, 1165.5, -2.0, -2.0, 586179.8125, 0.001758853206411004, -2.0, -2.0, 5411.374267578125, -2.0, -2.0, 6083.26513671875, 0.5, 5494.43017578125, 983.21630859375, 0.0010602518450468779, -2.0, -2.0, 762252.40625, -2.0, -2.0, 11579.52001953125, 689.1200561523438, -2.0, -2.0, 1068.5, -2.0, -2.0, -2.0, 6484.0, 6240.5, 279.625, 0.0004853410500800237, -2.0, -2.0, -2.0, -2.0, 0.0010689620394259691, 149.9646453857422, 6.910236358642578, -2.0, -2.0, 1430671.25, -2.0, -2.0, 94.0, 0.0009849281050264835, -2.0, -2.0, -2.0], "value": [[[-7.450028452326194]], [[-449.17173693681144]], [[-725.3385945029945]], [[-886.8811770098572]], [[-1036.906050363241]], [[-1098.5568580008435]], [[-1074.1365053989775]], [[-1122.9772106027092]], [[-913.6044350880366]], [[-818.6880527583191]], [[-729.3082324940806]], [[-808.9422912629972]], [[-681.5277972327304]], [[-902.8102365364264]], [[-954.838140911571]], [[-777.9432660360784]], [[-617.6435394984189]], [[-668.7217960539186]], [[-705.0181042152508]], [[-740.7611890675915]], [[-562.0457648058881]], [[-552.0550912496365]], [[-480.07896593417655]], [[-592.041827536003]], [[-385.8268366696127]], [[-227.4376038029812]], [[-484.8201072112575]], [[-253.07692683064568]], [[-395.3962499176256]], [[-446.0759197493372]], [[-511.46104899098003]], [[-534.4188342368742]], [[-436.02832604018477]], [[-402.4858335882422]], [[-453.22743066087645]], [[-371.6784353655715]], [[-230.13645698813164]], [[-307.1922104751022]], [[-383.39118340010657]], [[-185.27385379509496]], [[-129.96397745507]], [[-82.87994409724556]], [[-177.04801081289443]], [[-56.63617102044821]], [[-150.00595771005666]], [[-35.378777880984586]], [[18.207667899104706]], [[-121.11709112912745]], [[-195.1621194609032]], [[-235.84643679993388]], [[-132.5708620162406]], [[115.16423648843123]], [[15.896680553777799]], [[71.01880044835848]], [[-23.476262228065544]], [[206.79582658195747]], [[149.94506379290243]], [[242.32755332511687]], [[242.3690982639482]], [[67.25280818548397]], [[83.79645840078685]], [[-21.548561419306175]], [[-179.9051677880504]], [[-132.63380556664475]], [[-382.49672016550295]], [[49.90502925927354]], [[-33.304622917641204]], [[103.15920665249901]], [[172.07855247537196]], [[126.75320315482176]], [[-137.5158570858884]], [[150.469657278988]], [[239.66898567268356]], [[181.30415308618285]], [[279.15107830472823]], [[-796.3257330533281]], [[432.49535606342357]], [[323.5805534352007]], [[334.62326009874414]], [[347.56982283183265]], [[304.26056501986625]], [[380.7428713686579]], [[155.52914229102052]], [[127.02037482412852]], [[500.2966239247011]], [[560.7850226576362]], [[661.4240743286985]], [[524.8132906541972]], [[693.9504513940559]], [[503.902080408775]], [[648.6990881970893]], [[486.24390872727315]], [[445.1679567250645]], [[458.88463171323724]], [[476.6704560799869]], [[368.4733578489261]], [[278.2817443689624]]]}, {"children_left": [1, 2, 3, 4, 5, 6, -1, -1, -1, 10, 11, -1, -1, -1, 15, 16, 17, -1, -1, 20, -1, -1, -1, 24, 25, 26, 27, -1, -1, 30, -1, -1, 33, 34, -1, -1, 37, -1, -1, 40, 41, 42, -1, -1, 45, -1, -1, 48, -1, 50, -1, -1, 53, 54, 55, 56, 57, -1, -1, 60, -1, -1, 63, 64, -1, -1, 67, -1, -1, 70, 71, 72, -1, -1, -1, 76, 77, -1, -1, 80, -1, -1, 83, 84, 85, 86, -1, -1, -1, -1, 91, 92, 93, -1, -1, -1, 97, 98, -1, -1, 101, -1, -1], "children_right": [52, 23, 14, 9, 8, 7, -1, -1, -1, 13, 12, -1, -1, -1, 22, 19, 18, -1, -1, 21, -1, -1, -1, 39, 32, 29, 28, -1, -1, 31, -1, -1, 36, 35, -1, -1, 38, -1, -1, 47, 44, 43, -1, -1, 46, -1, -1, 49, -1, 51, -1, -1, 82, 69, 62, 59, 58, -1, -1, 61, -1, -1, 66, 65, -1, -1, 68, -1, -1, 75, 74, 73, -1, -1, -1, 79, 78, -1, -1, 81, -1, -1, 90, 89, 88, 87, -1, -1, -1, -1, 96, 95, 94, -1, -1, -1, 100, 99, -1, -1, 102, -1, -1], "feature": [2, 9, 10, 9, 0, 9, -2, -2, -2, 10, 1, -2, -2, -2, 8, 12, 10, -2, -2, 2, -2, -2, -2, 12, 9, 12, 5, -2, -2, 15, -2, -2, 0, 3, -2, -2, 10, -2, -2, 12, 26, 10, -2, -2, 9, -2, -2, 11, -2, 15, -2, -2, 12, 12, 10, 16, 17, -2, -2, 26, -2, -2, 10, 10, -2, -2, 4, -2, -2, 15, 26, 9, -2, -2, -2, 10, 12, -2, -2, 13, -2, -2, 9, 26, 3, 16, -2, -2, -2, -2, 6, 26, 3, -2, -2, -2, 4, 15, -2, -2, 11, -2, -2], "threshold": [826.5249938964844, 2070.0, 562.9849853515625, 566.5, 2.5, 197.5, -2.0, -2.0, -2.0, 453.0350036621094, 788.5, -2.0, -2.0, -2.0, 1529.5, 391.2872772216797, 2173.239990234375, -2.0, -2.0, 593.135009765625, -2.0, -2.0, -2.0, 2550.7723388671875, 4921.5, 1254.099365234375, 20.5, -2.0, -2.0, 6.618368625640869, -2.0, -2.0, 10.5, 113.71428680419922, -2.0, -2.0, 2500.22509765625, -2.0, -2.0, 4905.493896484375, 75.5, 4293.27001953125, -2.0, -2.0, 5811.5, -2.0, -2.0, 586179.8125, -2.0, 6.557031154632568, -2.0, -2.0, 6390.090576171875, 1246.4085693359375, 9585.25, 0.000807741133030504, 0.013992172200232744, -2.0, -2.0, 54.0, -2.0, -2.0, 13372.64013671875, 11236.23974609375, -2.0, -2.0, 194.78617095947266, -2.0, -2.0, 6.8852314949035645, 89.5, 3640.5, -2.0, -2.0, -2.0, 11579.009765625, 2272.9344482421875, -2.0, -2.0, 2.602003335952759, -2.0, -2.0, 6520.0, 92.5, 279.625, 0.0004960824153386056, -2.0, -2.0, -2.0, -2.0, 909162.5, 94.0, 52.370880126953125, -2.0, -2.0, -2.0, 149.9646453857422, 6.910236358642578, -2.0, -2.0, 1551946.1875, -2.0, -2.0], "value": [[[-2.2273753871388142]], [[-437.8281164626998]], [[-716.8055155304468]], [[-880.3749752043694]], [[-974.8566905230145]], [[-1013.590242071547]], [[-1083.1267810246854]], [[-960.1005967229792]], [[-863.497729820984]], [[-708.0847884468391]], [[-733.2047342684355]], [[-761.398717009465]], [[-693.7331584309943]], [[-647.7969184750078]], [[-610.7064065527669]], [[-643.6491119244223]], [[-727.4237056610114]], [[-760.1663632111301]], [[-616.9172364293607]], [[-552.0206500250276]], [[-580.5128766638419]], [[-497.62639916910933]], [[-295.397655138353]], [[-229.02294660831245]], [[-342.9693184701818]], [[-395.67266415734764]], [[-482.98156805042316]], [[-540.596840058899]], [[-448.41240484533756]], [[-314.455079140533]], [[-343.7291102911972]], [[-91.97244239548522]], [[-180.9553298763017]], [[-248.6890407133286]], [[-289.4254866003864]], [[-174.00555658705596]], [[-65.80802145335592]], [[9.845498715200302]], [[-141.46154162191215]], [[7.469523293680155]], [[-72.04456100650287]], [[-23.824742117383877]], [[-72.73528983215161]], [[61.76871638345966]], [[-153.6473314342427]], [[-211.9910353815946]], [[-117.18251646714774]], [[162.08024276625827]], [[40.72544123455668]], [[222.75764353210903]], [[172.21347589859062]], [[293.5194782190348]], [[238.8332288973951]], [[79.48673100878955]], [[-75.00010399631539]], [[-160.03741460931474]], [[-86.80375161086707]], [[-42.302602635326465]], [[-344.9104156690024]], [[-248.964005393144]], [[-324.76503285254876]], [[-147.8959687806043]], [[154.23090722133492]], [[88.44036697907282]], [[46.99564421771811]], [[129.88508974042753]], [[204.83901509999805]], [[258.91075515730074]], [[118.32423100831375]], [[146.14348722926638]], [[-15.84305705356309]], [[33.26763844394046]], [[-57.95783191418199]], [[132.78633338007404]], [[-241.75225634207942]], [[172.98149456606663]], [[140.70101780357768]], [[78.60823496393802]], [[178.115899771053]], [[264.6873944595006]], [[237.32799517701932]], [[371.08505833581654]], [[431.690363681029]], [[318.3863387694351]], [[333.2819682350862]], [[347.6909519139221]], [[304.83362152288134]], [[386.15265867511243]], [[120.02900978831721]], [[83.03539321214575]], [[495.5664582620614]], [[442.14418879619626]], [[454.9068712588953]], [[535.9002817985656]], [[436.61803662090506]], [[248.1514153631734]], [[559.2018086552242]], [[658.1034607918277]], [[568.9817753609975]], [[680.3838821495353]], [[501.70084811068716]], [[624.4855745150475]], [[481.78981139646675]]]}, {"children_left": [1, 2, 3, 4, 5, -1, -1, 8, 9, -1, -1, 12, -1, -1, 15, 16, 17, -1, -1, 20, -1, -1, -1, 24, 25, 26, 27, -1, -1, 30, -1, -1, 33, 34, -1, -1, 37, -1, -1, 40, 41, 42, -1, -1, -1, 46, -1, 48, -1, -1, 51, 52, 53, 54, 55, -1, -1, 58, -1, -1, 61, 62, -1, -1, 65, -1, -1, -1, 69, 70, 71, 72, -1, -1, -1, 76, 77, -1, -1, -1, 81, 82, 83, -1, -1, 86, -1, -1, 89, 90, -1, -1, 93, -1, -1], "children_right": [50, 23, 14, 7, 6, -1, -1, 11, 10, -1, -1, 13, -1, -1, 22, 19, 18, -1, -1, 21, -1, -1, -1, 39, 32, 29, 28, -1, -1, 31, -1, -1, 36, 35, -1, -1, 38, -1, -1, 45, 44, 43, -1, -1, -1, 47, -1, 49, -1, -1, 68, 67, 60, 57, 56, -1, -1, 59, -1, -1, 64, 63, -1, -1, 66, -1, -1, -1, 80, 75, 74, 73, -1, -1, -1, 79, 78, -1, -1, -1, 88, 85, 84, -1, -1, 87, -1, -1, 92, 91, -1, -1, 94, -1, -1], "feature": [15, 9, 10, 9, 30, -2, -2, 9, 4, -2, -2, 26, -2, -2, 10, 12, 10, -2, -2, 9, -2, -2, -2, 12, 9, 12, 10, -2, -2, 15, -2, -2, 8, 31, -2, -2, 9, -2, -2, 12, 12, 10, -2, -2, -2, 11, -2, 15, -2, -2, 12, 27, 12, 10, 12, -2, -2, 10, -2, -2, 10, 11, -2, -2, 7, -2, -2, -2, 9, 30, 3, 0, -2, -2, -2, 11, 15, -2, -2, -2, 17, 4, 7, -2, -2, 10, -2, -2, 0, 26, -2, -2, 11, -2, -2], "threshold": [6.733839988708496, 1530.0, 487.5400085449219, 210.5, 0.5, -2.0, -2.0, 566.0, 7.885833501815796, -2.0, -2.0, 37.5, -2.0, -2.0, 4951.77001953125, 452.627685546875, 2127.219970703125, -2.0, -2.0, 1421.0, -2.0, -2.0, -2.0, 2550.7723388671875, 4940.0, 1240.9625854492188, 1601.5049438476562, -2.0, -2.0, 6.562557220458984, -2.0, -2.0, 1165.5, 0.5, -2.0, -2.0, 10093.5, -2.0, -2.0, 4307.087890625, 3762.4732666015625, 3944.56494140625, -2.0, -2.0, -2.0, 578207.15625, -2.0, 6.584606647491455, -2.0, -2.0, 6405.638671875, 0.5, 1092.3984375, 9442.66015625, 669.8632202148438, -2.0, -2.0, 11552.64013671875, -2.0, -2.0, 5494.43017578125, 730065.1875, -2.0, -2.0, 1096555.75, -2.0, -2.0, -2.0, 6483.0, 0.5, 265.5, 12.5, -2.0, -2.0, -2.0, 1277940.9375, 7.563875436782837, -2.0, -2.0, -2.0, 0.0010040170745924115, 151.91875457763672, 1003234.1875, -2.0, -2.0, 12618.71533203125, -2.0, -2.0, 12.5, 93.5, -2.0, -2.0, 1018278.9375, -2.0, -2.0], "value": [[[-0.7639636719187568]], [[-430.87995257448574]], [[-734.2832476669976]], [[-923.637936914748]], [[-1076.506680717904]], [[-1058.8064663103032]], [[-1108.3670666515848]], [[-841.323997943818]], [[-913.3719349410306]], [[-864.5933184306059]], [[-937.7612431962428]], [[-743.0768111294369]], [[-766.1993051398829]], [[-723.8080661207317]], [[-626.0805680968537]], [[-656.5677183872763]], [[-699.1160231397504]], [[-725.3902119999793]], [[-613.1277686880911]], [[-545.4693670891495]], [[-579.8964156200517]], [[-476.61527002734516]], [[-229.7476143213667]], [[-240.1693099449069]], [[-351.33112089787033]], [[-400.8912266809953]], [[-493.76070815431933]], [[-538.058034133134]], [[-434.6976068492333]], [[-306.0869643436435]], [[-348.24422195028404]], [[-145.88938543840982]], [[-173.2818519733109]], [[-250.45029822617946]], [[-288.57971504168177]], [[-201.42676232053367]], [[-61.03683924186575]], [[-111.74431682458199]], [[-0.18786614260625356]], [[30.106465705436154]], [[-78.56935067851738]], [[-113.86649904686574]], [[-75.32978867401293]], [[-196.44516413155034]], [[18.49780733444058]], [[185.35763196822688]], [[46.15072119191749]], [[241.04039627875065]], [[194.4522598892383]], [[334.21666905777533]], [[237.26138941008415]], [[73.09536583806714]], [[88.8651178801636]], [[-99.16650419575564]], [[-145.7841218907775]], [[-216.88636931847816]], [[-68.99369466886077]], [[102.84317248267241]], [[65.58921783839386]], [[129.45314008572853]], [[146.4441791857082]], [[58.27537019091815]], [[-32.17097537933203]], [[100.14867832529319]], [[200.0236861902345]], [[66.30542109240973]], [[218.79116199343798]], [[-787.9330956603966]], [[429.82744237641634]], [[304.95975387394145]], [[334.6125832423776]], [[354.44956751206684]], [[343.61224348031595]], [[462.8228078295753]], [[152.77356077022714]], [[198.55842496367094]], [[268.60203694178807]], [[294.54113623587375]], [[232.2872979300681]], [[30.453756216189824]], [[491.0832895663094]], [[563.424584176784]], [[677.4583455496985]], [[534.0668642870967]], [[717.2893125670878]], [[494.40414966159915]], [[556.0942544396271]], [[475.2589447304868]], [[446.0545245536676]], [[420.1110977400251]], [[435.60769434151035]], [[212.45670328012238]], [[517.8978603452932]], [[479.39358873687695]], [[541.9630301005532]]]}, {"children_left": [1, 2, 3, 4, 5, 6, -1, -1, 9, -1, -1, -1, 13, 14, 15, -1, -1, 18, -1, -1, -1, 22, 23, 24, 25, -1, -1, -1, 29, 30, -1, -1, 33, -1, -1, 36, 37, 38, -1, -1, -1, 42, -1, -1, 45, 46, 47, 48, 49, -1, -1, 52, -1, -1, 55, 56, -1, -1, 59, -1, -1, 62, 63, 64, -1, -1, 67, -1, -1, 70, -1, -1, 73, 74, 75, 76, -1, -1, -1, 80, -1, -1, 83, 84, 85, -1, -1, 88, -1, -1, 91, 92, -1, -1, 95, -1, -1], "children_right": [44, 21, 12, 11, 8, 7, -1, -1, 10, -1, -1, -1, 20, 17, 16, -1, -1, 19, -1, -1, -1, 35, 28, 27, 26, -1, -1, -1, 32, 31, -1, -1, 34, -1, -1, 41, 40, 39, -1, -1, -1, 43, -1, -1, 72, 61, 54, 51, 50, -1, -1, 53, -1, -1, 58, 57, -1, -1, 60, -1, -1, 69, 66, 65, -1, -1, 68, -1, -1, 71, -1, -1, 82, 79, 78, 77, -1, -1, -1, 81, -1, -1, 90, 87, 86, -1, -1, 89, -1, -1, 94, 93, -1, -1, 96, -1, -1], "feature": [7, 9, 12, 0, 12, 5, -2, -2, 4, -2, -2, -2, 10, 12, 3, -2, -2, 16, -2, -2, -2, 12, 9, 12, 10, -2, -2, -2, 8, 23, -2, -2, 6, -2, -2, 11, 13, 26, -2, -2, -2, 10, -2, -2, 12, 12, 10, 12, 4, -2, -2, 10, -2, -2, 10, 9, -2, -2, 4, -2, -2, 16, 10, 14, -2, -2, 13, -2, -2, 1, -2, -2, 9, 31, 9, 8, -2, -2, -2, 9, -2, -2, 4, 17, 14, -2, -2, 2, -2, -2, 10, 26, -2, -2, 9, -2, -2], "threshold": [744520.59375, 3353.5, 273.39002990722656, 9.5, 7.660130023956299, 2.5, -2.0, -2.0, 77.1470832824707, -2.0, -2.0, -2.0, 6625.56005859375, 818.8358764648438, 26.501142501831055, -2.0, -2.0, 0.0014907050062902272, -2.0, -2.0, -2.0, 2996.450927734375, 4940.0, 2087.3322143554688, 1767.5699462890625, -2.0, -2.0, -2.0, 1165.5, 0.5, -2.0, -2.0, 764101.0, -2.0, -2.0, 586888.90625, 2.602003335952759, 70.0, -2.0, -2.0, -2.0, 5526.719970703125, -2.0, -2.0, 6405.638671875, 2008.5740966796875, 9585.93505859375, 665.2013854980469, 563.5445861816406, -2.0, -2.0, 6270.47509765625, -2.0, -2.0, 13372.64013671875, 673.0, -2.0, -2.0, 196.19833374023438, -2.0, -2.0, 0.0010618310770951211, 11535.83984375, 6.45441198348999, -2.0, -2.0, 2.602003335952759, -2.0, -2.0, 587.0, -2.0, -2.0, 6472.0, 0.5, 6261.0, 1529.5, -2.0, -2.0, -2.0, 5154.0, -2.0, -2.0, 154.84435272216797, 0.0009828126057982445, 6.9617698192596436, -2.0, -2.0, 1014.3499755859375, -2.0, -2.0, 12481.46533203125, 36.5, -2.0, -2.0, 8164.0, -2.0, -2.0], "value": [[[-0.8652251534168112]], [[-434.1112391454567]], [[-612.1892291722426]], [[-788.1376544687247]], [[-832.0125488013431]], [[-1003.2523356461815]], [[-1083.672701833854]], [[-942.9370610054272]], [[-789.2026020901333]], [[-712.2368141838779]], [[-855.906284942221]], [[-349.38871114254056]], [[-475.3404539416455]], [[-501.56650992843424]], [[-552.1883390224857]], [[-443.50566021892877]], [[-581.623231198449]], [[-401.9558139691716]], [[-293.65502537923123]], [[-439.62565347871595]], [[-130.6551466867065]], [[-149.18645510259898]], [[-269.1585938200301]], [[-362.16727695741713]], [[-404.95003449032293]], [[-476.7613349373012]], [[-355.5797654330252]], [[-217.77547028386007]], [[-160.6484634930786]], [[-243.01162006430368]], [[-215.1769188505643]], [[-294.0419056228257]], [[-52.94279720763045]], [[-110.33146196662136]], [[38.87906640675501]], [[24.10663415591258]], [[-66.68627226802009]], [[-96.38329012639815]], [[-60.64961169142848]], [[-172.95545820133322]], [[63.98060630884343]], [[160.2959937918116]], [[68.93859499486744]], [[251.6533925887557]], [[240.20162309896332]], [[81.6098781523538]], [[-8.339575596603748]], [[-72.18544439434088]], [[-211.45269525456945]], [[-125.20930085114273]], [[-273.05511982844564]], [[-24.436672670833957]], [[-48.40738547722616]], [[63.45594095260415]], [[173.5244143121021]], [[119.55863211736614]], [[83.3208865892921]], [[143.71712913608218]], [[218.495899474382]], [[249.82168050118096]], [[137.0488688047047]], [[158.27820450213628]], [[172.6791147610343]], [[146.03680596467896]], [[102.25879650872795]], [[194.28195924266583]], [[251.08362350459456]], [[227.4988581206327]], [[392.59221580836515]], [[-22.387760564038764]], [[-111.8690276339776]], [[52.17996199424359]], [[424.1147390874686]], [[305.8713077734003]], [[282.426342180634]], [[297.8969940967893]], [[277.94243330946864]], [[409.64253450578406]], [[78.21373688738444]], [[416.8441449124942]], [[365.6087665333772]], [[475.3988630600564]], [[491.0156278572702]], [[558.2581054831082]], [[677.8256716394246]], [[766.9938354404112]], [[637.2946880935218]], [[513.7678483086646]], [[387.0913923322347]], [[538.3993814151926]], [[448.3564216215234]], [[573.5375356435578]], [[645.2210491685552]], [[522.3350259828454]], [[429.8110713960367]], [[387.81514431505383]], [[453.2318768835079]]]}, {"children_left": [1, 2, 3, 4, 5, 6, -1, -1, 9, -1, -1, 12, -1, 14, -1, -1, 17, 18, 19, -1, -1, -1, 23, 24, -1, -1, 27, -1, -1, 30, 31, 32, 33, -1, -1, 36, -1, -1, 39, 40, -1, -1, -1, 44, 45, 46, -1, -1, -1, 50, 51, -1, -1, -1, 55, 56, 57, 58, 59, -1, -1, 62, -1, -1, 65, 66, -1, -1, 69, -1, -1, 72, 73, 74, -1, -1, -1, -1, 79, 80, 81, 82, -1, -1, 85, -1, -1, 88, 89, -1, -1, 92, -1, -1, 95, 96, 97, -1, -1, -1, 101, 102, -1, -1, -1], "children_right": [54, 29, 16, 11, 8, 7, -1, -1, 10, -1, -1, 13, -1, 15, -1, -1, 22, 21, 20, -1, -1, -1, 26, 25, -1, -1, 28, -1, -1, 43, 38, 35, 34, -1, -1, 37, -1, -1, 42, 41, -1, -1, -1, 49, 48, 47, -1, -1, -1, 53, 52, -1, -1, -1, 78, 71, 64, 61, 60, -1, -1, 63, -1, -1, 68, 67, -1, -1, 70, -1, -1, 77, 76, 75, -1, -1, -1, -1, 94, 87, 84, 83, -1, -1, 86, -1, -1, 91, 90, -1, -1, 93, -1, -1, 100, 99, 98, -1, -1, -1, 104, 103, -1, -1, -1], "feature": [16, 12, 12, 10, 16, 6, -2, -2, 12, -2, -2, 10, -2, 4, -2, -2, 2, 26, 9, -2, -2, -2, 10, 9, -2, -2, 8, -2, -2, 9, 30, 9, 3, -2, -2, 11, -2, -2, 6, 9, -2, -2, -2, 9, 26, 11, -2, -2, -2, 12, 9, -2, -2, -2, 9, 10, 9, 10, 13, -2, -2, 24, -2, -2, 9, 4, -2, -2, 26, -2, -2, 2, 13, 12, -2, -2, -2, -2, 12, 9, 16, 16, -2, -2, 10, -2, -2, 5, 17, -2, -2, 9, -2, -2, 11, 26, 12, -2, -2, -2, 10, 10, -2, -2, -2], "threshold": [0.0011665913043543696, 6405.638671875, 1243.9114379882812, 9612.2900390625, 0.000807741133030504, 4972.5, -2.0, -2.0, 991.9170227050781, -2.0, -2.0, 13372.64013671875, -2.0, 178.77367401123047, -2.0, -2.0, 976.72998046875, 89.5, 3640.5, -2.0, -2.0, -2.0, 11579.009765625, 2598.5, -2.0, -2.0, 1962.5, -2.0, -2.0, 6998.0, 0.5, 5044.0, 279.625, -2.0, -2.0, 1136848.125, -2.0, -2.0, 480258.0, 6048.0, -2.0, -2.0, -2.0, 11863.0, 94.0, 1729621.875, -2.0, -2.0, -2.0, 28888.4375, 14239.0, -2.0, -2.0, -2.0, 2097.760009765625, 1300.0700073242188, 546.5, 568.6000061035156, 1.2424533367156982, -2.0, -2.0, 0.5, -2.0, -2.0, 1424.0, 440.5, -2.0, -2.0, 35.0, -2.0, -2.0, 779.375, 2.3502402305603027, 411.9216003417969, -2.0, -2.0, -2.0, -2.0, 2996.450927734375, 4940.0, 0.0016973922029137611, 0.001337766763754189, -2.0, -2.0, 1790.0950317382812, -2.0, -2.0, 110.5, 0.0011378037161193788, -2.0, -2.0, 11460.5, -2.0, -2.0, 586179.8125, 53.0, 3529.2833251953125, -2.0, -2.0, -2.0, 5526.719970703125, 4403.169921875, -2.0, -2.0, -2.0], "value": [[[-4.935543543548715]], [[239.41323985282787]], [[77.46259327242942]], [[-79.47455163518464]], [[-148.71964030600043]], [[-76.07282710375151]], [[-309.25998156624235]], [[-29.435396211253355]], [[-239.52815680881153]], [[-189.8972338333864]], [[-428.12566411542684]], [[140.4804359074065]], [[88.19008351821302]], [[177.08368257984196]], [[224.4472509548519]], [[129.720114204832]], [[135.4966416497242]], [[-25.174638492663107]], [[23.586430231364364]], [[-43.35347481296795]], [[120.27740418428883]], [[-239.72334087838394]], [[161.78830567302396]], [[134.20718388907892]], [[105.5333660676035]], [[188.22065466906741]], [[245.20438131227235]], [[220.3430921357333]], [[365.959214455462]], [[416.8841567305142]], [[320.06525522367883]], [[348.34131562603017]], [[298.85205891761706]], [[316.83428853491165]], [[165.78355974963705]], [[406.0787817858457]], [[467.69474467230754]], [[371.2523679804542]], [[241.29622981712842]], [[280.68430726396764]], [[250.70215242713826]], [[336.9008475830224]], [[60.11107356166822]], [[493.4722429971148]], [[462.95112049652136]], [[474.70658692735435]], [[509.10962149669245]], [[412.78112470254587]], [[232.54397845219728]], [[594.881133886184]], [[630.9126167138008]], [[605.8359179775292]], [[726.2040719116327]], [[471.3446213343539]], [[-418.7653012821933]], [[-681.4533653631933]], [[-788.35909306376]], [[-886.1737105499678]], [[-957.3357811250165]], [[-996.0440246332627]], [[-830.1515524550639]], [[-721.9535476844724]], [[-593.3017627708953]], [[-872.0472967503125]], [[-671.5249666219008]], [[-706.1213377345555]], [[-735.6730252632511]], [[-582.0042501140325]], [[-581.5744017289996]], [[-554.9884230222904]], [[-608.1603804357089]], [[-505.5043551893427]], [[-546.7983783446208]], [[-583.0049656516697]], [[-665.3276780209615]], [[-526.6788992937335]], [[-418.0638456973352]], [[-263.63936242271393]], [[-222.52186517462226]], [[-311.5399524570119]], [[-371.167813643451]], [[-221.67268884999785]], [[-96.56408782667424]], [[-276.4077017977019]], [[-423.26459955632083]], [[-490.9239650555033]], [[-376.4235003645794]], [[-171.88522494140489]], [[-237.32723281252242]], [[-191.30534473540956]], [[-261.8722397869826]], [[-71.54081287235788]], [[-132.46450459793544]], [[50.3065705787973]], [[40.39202051987755]], [[-50.65897426835804]], [[-8.831414804433523]], [[-102.26253246558863]], [[37.88414402614403]], [[-120.3715733748989]], [[155.4038034102804]], [[63.48792852146253]], [[18.409791819506108]], [[108.56606522341895]], [[257.5325532867447]]]}, {"children_left": [1, 2, 3, 4, 5, 6, -1, -1, 9, -1, -1, 12, 13, -1, -1, -1, 17, 18, 19, -1, -1, -1, -1, 24, 25, 26, 27, -1, -1, 30, -1, -1, 33, 34, -1, -1, -1, 38, 39, 40, -1, -1, 43, -1, -1, 46, -1, -1, 49, 50, 51, 52, 53, -1, -1, 56, -1, -1, 59, -1, 61, -1, -1, 64, 65, 66, -1, -1, 69, -1, -1, 72, 73, -1, -1, 76, -1, -1, 79, 80, 81, 82, -1, -1, -1, -1, 87, 88, 89, -1, -1, 92, -1, -1, 95, 96, -1, -1, -1], "children_right": [48, 23, 16, 11, 8, 7, -1, -1, 10, -1, -1, 15, 14, -1, -1, -1, 22, 21, 20, -1, -1, -1, -1, 37, 32, 29, 28, -1, -1, 31, -1, -1, 36, 35, -1, -1, -1, 45, 42, 41, -1, -1, 44, -1, -1, 47, -1, -1, 78, 63, 58, 55, 54, -1, -1, 57, -1, -1, 60, -1, 62, -1, -1, 71, 68, 67, -1, -1, 70, -1, -1, 75, 74, -1, -1, 77, -1, -1, 86, 85, 84, 83, -1, -1, -1, -1, 94, 91, 90, -1, -1, 93, -1, -1, 98, 97, -1, -1, -1], "feature": [7, 9, 10, 9, 9, 26, -2, -2, 17, -2, -2, 10, 10, -2, -2, -2, 10, 5, 12, -2, -2, -2, -2, 9, 12, 12, 5, -2, -2, 16, -2, -2, 16, 9, -2, -2, -2, 11, 9, 12, -2, -2, 1, -2, -2, 10, -2, -2, 12, 12, 10, 12, 11, -2, -2, 9, -2, -2, 10, -2, 4, -2, -2, 10, 12, 7, -2, -2, 10, -2, -2, 7, 26, -2, -2, 5, -2, -2, 9, 9, 3, 31, -2, -2, -2, -2, 9, 10, 2, -2, -2, 15, -2, -2, 12, 9, -2, -2, -2], "threshold": [704545.03125, 1993.5, 606.7550048828125, 499.0, 197.5, 78.5, -2.0, -2.0, 0.004219520837068558, -2.0, -2.0, 453.0350036621094, 182.44499969482422, -2.0, -2.0, -2.0, 6625.56005859375, 90.5, 452.627685546875, -2.0, -2.0, -2.0, -2.0, 4968.0, 1876.6824951171875, 1240.9625854492188, 30.5, -2.0, -2.0, 0.0014907050062902272, -2.0, -2.0, 0.0019178452785126865, 3028.0, -2.0, -2.0, -2.0, 586888.90625, 11407.0, 3762.4732666015625, -2.0, -2.0, 1137.0, -2.0, -2.0, 5526.719970703125, -2.0, -2.0, 6405.638671875, 1253.3878173828125, 9442.66015625, 665.2013854980469, 154718.234375, -2.0, -2.0, 866.0, -2.0, -2.0, 13372.64013671875, -2.0, 178.77367401123047, -2.0, -2.0, 5494.43017578125, 3115.913330078125, 993740.78125, -2.0, -2.0, 4763.364990234375, -2.0, -2.0, 1106611.0, 64.0, -2.0, -2.0, 110.5, -2.0, -2.0, 6531.0, 6323.0, 279.625, 0.5, -2.0, -2.0, -2.0, -2.0, 11863.0, 12391.63525390625, 1010.2200012207031, -2.0, -2.0, 7.08191704750061, -2.0, -2.0, 28888.4375, 14239.0, -2.0, -2.0, -2.0], "value": [[[13.608226477678523]], [[-420.1018843258465]], [[-679.1235874632931]], [[-861.243474369416]], [[-956.0357070374395]], [[-1020.8721597840706]], [[-984.1518935891881]], [[-1057.592425978953]], [[-912.8114052063519]], [[-947.9145627510708]], [[-860.1566688892735]], [[-703.2564199227108]], [[-737.7516673112325]], [[-752.968497913282]], [[-722.5348367091831]], [[-634.2659251456673]], [[-585.7287736652819]], [[-614.2184436577922]], [[-637.6892900603391]], [[-691.2336071976893]], [[-542.2407247285411]], [[-447.3146470174593]], [[-169.77959177462586]], [[-226.6552959067404]], [[-364.5244872372697]], [[-418.1755107953752]], [[-470.9436495067328]], [[-526.2868831066144]], [[-434.8502362894189]], [[-351.3358684276557]], [[-264.4343771279983]], [[-368.716166687587]], [[-190.7973633348323]], [[-151.58472557637947]], [[-92.30295679298563]], [[-187.15378684641573]], [[-316.2778041618815]], [[-48.82402013257953]], [[-105.76888010803602]], [[-138.88909390354658]], [[-179.08516107540763]], [[-18.300892387963174]], [[15.671903808835623]], [[58.3904678475536]], [[-14.841356218820076]], [[196.47691514630998]], [[135.48210403269005]], [[248.75818181512705]], [[242.05095659556565]], [[79.86159511991306]], [[-63.51583470994634]], [[-140.53005173567874]], [[-221.58390212662886]], [[-158.77848375294616]], [[-307.22765445437796]], [[-72.54940302068822]], [[-18.337147980622202]], [[-205.06824867418302]], [[145.52275435989856]], [[82.291956004583]], [[192.94585312638523]], [[248.9003472616087]], [[114.60956133707236]], [[136.6303236819894]], [[52.2705278910808]], [[13.812727490811191]], [[-120.0759742773533]], [[47.28490293285231]], [[143.3547919969825]], [[170.46270397674036]], [[96.88408574596903]], [[177.22451113024619]], [[48.63464121179306]], [[114.36892909247995]], [[-95.98079212571808]], [[194.80945060627383]], [[178.89618664983766]], [[295.2619293312773]], [[421.1757534060255]], [[306.95969146067597]], [[319.8803559657155]], [[333.19357063754495]], [[314.9555823387352]], [[424.38351213159325]], [[146.80856523193378]], [[89.8925277760106]], [[484.70843786312616]], [[455.68148588187626]], [[547.5969877481446]], [[400.326728307631]], [[598.8214258144101]], [[425.04298525978686]], [[221.39486755266907]], [[436.61390103860026]], [[584.6901613540981]], [[622.8311796714239]], [[593.2897308582828]], [[726.226250517418]], [[470.267106402121]]]}, {"children_left": [1, 2, 3, 4, 5, -1, 7, -1, -1, 10, 11, -1, -1, -1, 15, 16, 17, -1, -1, 20, -1, -1, 23, 24, -1, -1, -1, 28, 29, 30, -1, -1, 33, 34, -1, -1, 37, -1, -1, 40, 41, 42, -1, -1, -1, 46, 47, -1, -1, -1, 51, 52, 53, 54, 55, -1, -1, 58, -1, -1, 61, -1, 63, -1, -1, 66, 67, 68, -1, -1, 71, -1, -1, 74, 75, -1, -1, 78, -1, -1, 81, 82, 83, 84, -1, -1, 87, -1, -1, -1, 91, 92, 93, -1, -1, -1, 97, 98, -1, -1, 101, -1, -1], "children_right": [50, 27, 14, 9, 6, -1, 8, -1, -1, 13, 12, -1, -1, -1, 22, 19, 18, -1, -1, 21, -1, -1, 26, 25, -1, -1, -1, 39, 32, 31, -1, -1, 36, 35, -1, -1, 38, -1, -1, 45, 44, 43, -1, -1, -1, 49, 48, -1, -1, -1, 80, 65, 60, 57, 56, -1, -1, 59, -1, -1, 62, -1, 64, -1, -1, 73, 70, 69, -1, -1, 72, -1, -1, 77, 76, -1, -1, 79, -1, -1, 90, 89, 86, 85, -1, -1, 88, -1, -1, -1, 96, 95, 94, -1, -1, -1, 100, 99, -1, -1, 102, -1, -1], "feature": [15, 9, 10, 9, 10, -2, 5, -2, -2, 9, 12, -2, -2, -2, 10, 9, 2, -2, -2, 24, -2, -2, 26, 16, -2, -2, -2, 9, 16, 6, -2, -2, 10, 9, -2, -2, 11, -2, -2, 12, 11, 9, -2, -2, -2, 12, 17, -2, -2, -2, 12, 12, 10, 16, 14, -2, -2, 4, -2, -2, 10, -2, 5, -2, -2, 10, 12, 10, -2, -2, 16, -2, -2, 4, 10, -2, -2, 3, -2, -2, 9, 3, 2, 30, -2, -2, 11, -2, -2, -2, 14, 26, 13, -2, -2, -2, 4, 11, -2, -2, 10, -2, -2], "threshold": [6.753673076629639, 2216.0, 611.9750061035156, 499.0, 11.450000286102295, -2.0, 6.5, -2.0, -2.0, 1157.0, 268.2293472290039, -2.0, -2.0, -2.0, 4064.31494140625, 1310.5, 551.3949890136719, -2.0, -2.0, 0.5, -2.0, -2.0, 88.0, 0.0013366510393097997, -2.0, -2.0, -2.0, 4940.0, 0.001496917917393148, 316012.5, -2.0, -2.0, 1790.0950317382812, 4303.5, -2.0, -2.0, 403071.546875, -2.0, -2.0, 4975.897705078125, 497181.203125, 11407.0, -2.0, -2.0, -2.0, 6789.367919921875, 0.001047213445417583, -2.0, -2.0, -2.0, 6520.10791015625, 1253.3878173828125, 9401.18994140625, 0.0009233599121216685, 4.269477367401123, -2.0, -2.0, 255.90750122070312, -2.0, -2.0, 11236.23974609375, -2.0, 90.5, -2.0, -2.0, 13287.09033203125, 2492.7332763671875, 1922.1649780273438, -2.0, -2.0, 0.0010618310770951211, -2.0, -2.0, 179.93087005615234, 14891.1201171875, -2.0, -2.0, 42.803571701049805, -2.0, -2.0, 6483.0, 255.875, 2059.419921875, 0.5, -2.0, -2.0, 1414200.0, -2.0, -2.0, -2.0, 6.841073989868164, 94.0, 2.602003335952759, -2.0, -2.0, -2.0, 149.9646453857422, 1021153.1875, -2.0, -2.0, 13389.0947265625, -2.0, -2.0], "value": [[[-3.900218442571687]], [[-412.1874328992947]], [[-644.6716632654542]], [[-832.7527157306993]], [[-945.4016261891695]], [[-1057.5144434592012]], [[-919.9214404459804]], [[-947.5970966446373]], [[-846.119690582896]], [[-680.6766866117644]], [[-701.2419575602082]], [[-728.4225442579175]], [[-646.8807841647895]], [[-618.980873766433]], [[-544.219282971517]], [[-588.9409458462947]], [[-654.2444950303429]], [[-701.5089185017399]], [[-566.0175712170684]], [[-492.1115453320163]], [[-392.9635403013036]], [[-544.2947058744967]], [[-342.9718000350167]], [[-282.3439486439103]], [[-190.2090222669789]], [[-392.905860296228]], [[-476.3530730954508]], [[-218.45057426082752]], [[-359.1484904790896]], [[-154.3734120259201]], [[-190.42990423608288]], [[-113.16599235716265]], [[-402.410830997365]], [[-498.98814193529137]], [[-526.4813323567337]], [[-411.92637226739095]], [[-349.92316200936165]], [[-377.8880618267271]], [[-217.0898878768756]], [[-59.239774329636305]], [[-119.28894721621428]], [[-145.23014320943463]], [[-172.10871561501708]], [[27.560679397880513]], [[30.593518522392564]], [[184.96019540911394]], [[113.64973791900722]], [[52.392685372614736]], [[174.90679046539972]], [[327.58111038932736]], [[237.17593005374377]], [[76.52211253507804]], [[-78.14209164605107]], [[-149.5024584034803]], [[-99.21768089838567]], [[-296.7909119188629]], [[-63.295275258298936]], [[-252.71858065077973]], [[-131.34750253962966]], [[-323.51837621561714]], [[139.69481740294327]], [[38.44777209964609]], [[175.8544764398352]], [[109.0603157764912]], [[212.96234347502624]], [[138.87365034631856]], [[109.8245315617085]], [[43.486333935967025]], [[-88.4629215843338]], [[67.23719992962117]], [[151.46233645446102]], [[168.9827263155092]], [[4.291061621656456]], [[255.8345759790907]], [[322.901491422258]], [[277.8686512315125]], [[352.9233848827549]], [[212.09528329876412]], [[186.75099166387886]], [[303.334733184351]], [[420.38964535162637]], [[305.2988938488567]], [[318.2162004754826]], [[347.1022434830974]], [[370.9424624360835]], [[297.5879425807418]], [[283.2028150117071]], [[251.0931918190265]], [[321.73436284292376]], [[116.70621710011778]], [[477.56849004727013]], [[424.8479619871838]], [[437.73793536768267]], [[415.8392295601924]], [[484.2726852085996]], [[231.49836127969957]], [[532.3430646551517]], [[649.1716635629409]], [[542.3874219793863]], [[675.8677239588295]], [[476.1754690264069]], [[574.5320018118158]], [[446.6685091907842]]]}, {"children_left": [1, 2, 3, 4, 5, 6, -1, -1, 9, -1, -1, 12, -1, -1, 15, 16, 17, -1, -1, 20, -1, -1, 23, -1, 25, -1, -1, 28, 29, 30, 31, -1, -1, 34, -1, -1, 37, 38, -1, -1, -1, 42, 43, 44, -1, -1, -1, 48, 49, -1, -1, 52, -1, -1, 55, 56, 57, 58, 59, -1, -1, 62, -1, -1, 65, 66, -1, -1, -1, 70, 71, 72, -1, -1, 75, -1, -1, 78, 79, -1, -1, 82, -1, -1, 85, 86, 87, 88, -1, -1, 91, -1, -1, -1, 95, 96, 97, -1, -1, 100, -1, -1, 103, 104, -1, -1, 107, -1, -1], "children_right": [54, 27, 14, 11, 8, 7, -1, -1, 10, -1, -1, 13, -1, -1, 22, 19, 18, -1, -1, 21, -1, -1, 24, -1, 26, -1, -1, 41, 36, 33, 32, -1, -1, 35, -1, -1, 40, 39, -1, -1, -1, 47, 46, 45, -1, -1, -1, 51, 50, -1, -1, 53, -1, -1, 84, 69, 64, 61, 60, -1, -1, 63, -1, -1, 68, 67, -1, -1, -1, 77, 74, 73, -1, -1, 76, -1, -1, 81, 80, -1, -1, 83, -1, -1, 94, 93, 90, 89, -1, -1, 92, -1, -1, -1, 102, 99, 98, -1, -1, 101, -1, -1, 106, 105, -1, -1, 108, -1, -1], "feature": [2, 9, 10, 9, 9, 30, -2, -2, 17, -2, -2, 16, -2, -2, 10, 9, 24, -2, -2, 10, -2, -2, 26, -2, 10, -2, -2, 9, 12, 12, 13, -2, -2, 16, -2, -2, 16, 15, -2, -2, -2, 12, 9, 12, -2, -2, -2, 11, 26, -2, -2, 3, -2, -2, 12, 12, 10, 15, 26, -2, -2, 9, -2, -2, 10, 10, -2, -2, -2, 10, 16, 12, -2, -2, 6, -2, -2, 4, 10, -2, -2, 3, -2, -2, 9, 3, 2, 30, -2, -2, 10, -2, -2, -2, 17, 4, 3, -2, -2, 10, -2, -2, 16, 4, -2, -2, 12, -2, -2], "threshold": [828.0950012207031, 2070.0, 487.5400085449219, 645.5, 269.9250030517578, 0.5, -2.0, -2.0, 0.0035253362730145454, -2.0, -2.0, 0.012821303680539131, -2.0, -2.0, 4036.2900390625, 1281.1799926757812, 0.5, -2.0, -2.0, 993.6999816894531, -2.0, -2.0, 39.5, -2.0, 4951.77001953125, -2.0, -2.0, 4968.0, 1891.0496826171875, 1254.099365234375, 1.8688347935676575, -2.0, -2.0, 0.0014907050062902272, -2.0, -2.0, 0.00200393155682832, 6.530672073364258, -2.0, -2.0, -2.0, 3762.4732666015625, 11407.0, 1961.7015991210938, -2.0, -2.0, -2.0, 586179.8125, 53.0, -2.0, -2.0, 113.47222137451172, -2.0, -2.0, 6390.090576171875, 1396.1246337890625, 9442.66015625, 6.987520933151245, 60.0, -2.0, -2.0, 923.8250122070312, -2.0, -2.0, 19260.0595703125, 11257.0, -2.0, -2.0, -2.0, 13199.18994140625, 0.0010618310770951211, 2532.260498046875, -2.0, -2.0, 355217.0, -2.0, -2.0, 179.96507263183594, 15555.2998046875, -2.0, -2.0, 42.803571701049805, -2.0, -2.0, 6531.0, 255.875, 2059.419921875, 0.5, -2.0, -2.0, 28153.1298828125, -2.0, -2.0, -2.0, 0.0010622430127114058, 149.9646453857422, 97.29166793823242, -2.0, -2.0, 13389.0947265625, -2.0, -2.0, 0.0008445451385341585, 165.0570831298828, -2.0, -2.0, 9525.99169921875, -2.0, -2.0], "value": [[[2.680127130727278]], [[-414.4058647178264]], [[-664.3119640749073]], [[-873.031332999014]], [[-948.5733279008929]], [[-993.068411652262]], [[-964.3652021271024]], [[-1056.2154726076133]], [[-883.8532060807192]], [[-917.2847024354616]], [[-843.7354104550286]], [[-687.610072785312]], [[-717.5751490912625]], [[-651.6519812181716]], [[-568.7536987843524]], [[-615.3407339812586]], [[-660.0708418930194]], [[-579.3591979219601]], [[-744.291687775864]], [[-515.2304924644604]], [[-624.4895276212818]], [[-471.5268784017319]], [[-357.559139225046]], [[-202.02600714276247]], [[-435.32570526618764]], [[-488.9398939873681]], [[-381.71151654500727]], [[-224.2257513706133]], [[-349.49744645877394]], [[-414.5405946151006]], [[-460.684048695904]], [[-508.2052559282882]], [[-424.4774146140877]], [[-351.30697235622205]], [[-259.2302429538645]], [[-372.2335017658486]], [[-200.8273935300272]], [[-162.61006473906343]], [[-213.93421455430547]], [[-119.83993989302843]], [[-340.95759909689417]], [[-52.21088647343747]], [[-139.14592995813518]], [[-164.00297860613256]], [[-211.84627310689513]], [[-121.19582036860811]], [[39.82482030744582]], [[84.87898979089354]], [[17.957398294211412]], [[68.11495287656804]], [[-72.32619995403051]], [[162.95417987035606]], [[213.9797041402842]], [[111.92865560042792]], [[227.26489197225607]], [[66.88201333704642]], [[-57.12277979310017]], [[-117.15661041447255]], [[-245.9770821278528]], [[-336.80203152221077]], [[-174.6146218894287]], [[-50.062614730420314]], [[-33.63261141767685]], [[-191.36064322001425]], [[142.0803854505446]], [[104.9084007911202]], [[40.60077825349057]], [[139.98528581164544]], [[268.4651332925875]], [[131.25608627346134]], [[104.77296909779918]], [[122.911260717407]], [[64.67217893316655]], [[161.73731524023393]], [[-19.331131457411995]], [[-90.27877726156989]], [[59.49958610276344]], [[247.31445271974553]], [[338.39224325853667]], [[299.89601848104667]], [[392.28695794702264]], [[197.6356578804049]], [[171.41750259449236]], [[286.77738585250756]], [[411.5063806523727]], [[309.6493324347857]], [[320.3466862041235]], [[353.1246242835854]], [[373.6038650362013]], [[289.6389779504757]], [[284.98101617102014]], [[270.12053558874834]], [[383.0601880140137]], [[168.80084113850435]], [[466.6519163115758]], [[514.2532474789984]], [[601.4838861511008]], [[567.955052898184]], [[653.3011739056085]], [[466.3619164433344]], [[533.6329390978435]], [[447.86238521334434]], [[418.44031166764773]], [[439.06651191564043]], [[510.88382456399876]], [[386.6592837668383]], [[324.14911053396816]], [[398.7908746053406]], [[189.79393520549755]]]}, {"children_left": [1, 2, 3, 4, 5, 6, -1, -1, -1, 10, 11, -1, -1, -1, 15, 16, 17, -1, -1, 20, -1, -1, -1, 24, 25, 26, -1, 28, -1, -1, 31, 32, -1, -1, 35, -1, -1, 38, 39, 40, -1, -1, 43, -1, -1, 46, -1, 48, -1, -1, 51, 52, 53, 54, 55, -1, -1, 58, -1, -1, 61, 62, -1, -1, 65, -1, -1, -1, 69, 70, 71, 72, -1, -1, 75, -1, -1, 78, -1, -1, 81, 82, 83, -1, -1, 86, -1, -1, 89, 90, -1, -1, 93, -1, -1], "children_right": [50, 23, 14, 9, 8, 7, -1, -1, -1, 13, 12, -1, -1, -1, 22, 19, 18, -1, -1, 21, -1, -1, -1, 37, 30, 27, -1, 29, -1, -1, 34, 33, -1, -1, 36, -1, -1, 45, 42, 41, -1, -1, 44, -1, -1, 47, -1, 49, -1, -1, 68, 67, 60, 57, 56, -1, -1, 59, -1, -1, 64, 63, -1, -1, 66, -1, -1, -1, 80, 77, 74, 73, -1, -1, 76, -1, -1, 79, -1, -1, 88, 85, 84, -1, -1, 87, -1, -1, 92, 91, -1, -1, 94, -1, -1], "feature": [15, 9, 10, 9, 8, 9, -2, -2, -2, 10, 17, -2, -2, -2, 10, 9, 24, -2, -2, 10, -2, -2, -2, 9, 16, 14, -2, 10, -2, -2, 10, 9, -2, -2, 17, -2, -2, 11, 0, 12, -2, -2, 9, -2, -2, 10, -2, 4, -2, -2, 12, 27, 10, 12, 2, -2, -2, 12, -2, -2, 16, 9, -2, -2, 11, -2, -2, -2, 9, 31, 4, 13, -2, -2, 26, -2, -2, 16, -2, -2, 9, 3, 4, -2, -2, 11, -2, -2, 7, 17, -2, -2, 10, -2, -2], "threshold": [6.72033429145813, 2216.0, 562.9849853515625, 566.0, 17.5, 197.5, -2.0, -2.0, -2.0, 453.0350036621094, 0.0012667712871916592, -2.0, -2.0, -2.0, 5745.699951171875, 1310.5, 0.5, -2.0, -2.0, 1467.280029296875, -2.0, -2.0, -2.0, 5029.0, 0.001580060226842761, 6.31318998336792, -2.0, 3294.25, -2.0, -2.0, 1721.9849853515625, 4084.0, -2.0, -2.0, 0.0015256248880177736, -2.0, -2.0, 586179.8125, 10.5, 2985.78173828125, -2.0, -2.0, 11460.5, -2.0, -2.0, 4520.014892578125, -2.0, 86.35499954223633, -2.0, -2.0, 6520.10791015625, 0.5, 5494.43017578125, 958.4799194335938, 958.4750061035156, -2.0, -2.0, 3213.0250244140625, -2.0, -2.0, 0.0009497095888946205, 1455.5, -2.0, -2.0, 585001.46875, -2.0, -2.0, -2.0, 6998.0, 0.5, 204.7719497680664, 2.602003335952759, -2.0, -2.0, 86.5, -2.0, -2.0, 0.0005527832836378366, -2.0, -2.0, 11725.0, 127.44444274902344, 194.13404083251953, -2.0, -2.0, 1603493.8125, -2.0, -2.0, 3196421.875, 0.0009818419348448515, -2.0, -2.0, 27006.6201171875, -2.0, -2.0], "value": [[[6.531945466190386]], [[-415.0196535292098]], [[-657.0918476696754]], [[-823.6289743454794]], [[-921.8139954063029]], [[-951.9178434689832]], [[-1007.7043507338858]], [[-900.4226059936889]], [[-796.3812951451329]], [[-654.5325491851728]], [[-674.8585413129633]], [[-635.502796573069]], [[-699.4558817753973]], [[-601.6849696529174]], [[-553.796667832784]], [[-576.3560273327585]], [[-630.6778271499113]], [[-555.8683857542064]], [[-693.5177579223033]], [[-487.1130704902933]], [[-537.556204007054]], [[-428.90945489403083]], [[-219.91814723316043]], [[-205.65991805637503]], [[-346.2541518391762]], [[-157.02703163951745]], [[-221.10158092792616]], [[-105.76739220879048]], [[-129.7225155723536]], [[-81.8122688452274]], [[-402.09166271776394]], [[-490.19919994027504]], [[-505.84804312544657]], [[-433.86336447365704]], [[-348.7634165041389]], [[-271.8353079529209]], [[-393.63814649234945]], [[-44.68970836302294]], [[-112.91637308983283]], [[-165.13577946422822]], [[-220.9428568238767]], [[-87.86444158163788]], [[-35.830582727630166]], [[-69.89553980333817]], [[49.33180996163984]], [[164.00361903663074]], [[45.01466529705531]], [[213.58234976145386]], [[156.45198482430337]], [[270.71271469860426]], [[228.57057394468356]], [[72.9682548252108]], [[88.28591507890829]], [[-26.99100549255069]], [[-175.20794586717074]], [[-327.2280599795963]], [[-126.3443377596054]], [[40.713028999559704]], [[6.126111219789224]], [[146.20312822785968]], [[173.30264400035935]], [[191.67270019511238]], [[139.61221871458702]], [[227.86108366328256]], [[51.71036728270782]], [[7.666503031653129]], [[192.65073288608286]], [[-778.6936552803678]], [[411.29030967418885]], [[313.61357457430563]], [[290.1353150791772]], [[360.7445857178886]], [[332.2510145008252]], [[446.2252993690794]], [[245.83145899214261]], [[266.0281854805229]], [[60.02157529904357]], [[435.40704570528453]], [[376.3901645800718]], [[481.3090643582278]], [[479.38887851143113]], [[452.31510294946213]], [[431.67489026913745]], [[453.037708656168]], [[369.44407148952695]], [[555.5161663510854]], [[657.0020959684267]], [[474.32742265721237]], [[565.3879302965101]], [[619.938886197408]], [[680.7666813138678]], [[552.3524471791194]], [[496.2900528220397]], [[536.3585030872193]], [[461.23015884000745]]]}, {"children_left": [1, 2, 3, 4, 5, 6, -1, -1, -1, 10, 11, -1, -1, -1, 15, 16, 17, -1, -1, 20, -1, -1, 23, -1, -1, 26, 27, 28, 29, -1, -1, 32, -1, -1, 35, -1, -1, 38, 39, 40, -1, -1, -1, 44, 45, -1, -1, 48, -1, -1, 51, 52, 53, 54, 55, -1, -1, 58, -1, -1, 61, 62, -1, -1, 65, -1, -1, -1, 69, 70, 71, 72, -1, -1, -1, 76, -1, 78, -1, -1, 81, 82, 83, -1, -1, 86, -1, -1, 89, 90, -1, -1, -1], "children_right": [50, 25, 14, 9, 8, 7, -1, -1, -1, 13, 12, -1, -1, -1, 22, 19, 18, -1, -1, 21, -1, -1, 24, -1, -1, 37, 34, 31, 30, -1, -1, 33, -1, -1, 36, -1, -1, 43, 42, 41, -1, -1, -1, 47, 46, -1, -1, 49, -1, -1, 68, 67, 60, 57, 56, -1, -1, 59, -1, -1, 64, 63, -1, -1, 66, -1, -1, -1, 80, 75, 74, 73, -1, -1, -1, 77, -1, 79, -1, -1, 88, 85, 84, -1, -1, 87, -1, -1, 92, 91, -1, -1, -1], "feature": [15, 9, 10, 9, 13, 9, -2, -2, -2, 1, 10, -2, -2, -2, 10, 9, 24, -2, -2, 24, -2, -2, 4, -2, -2, 9, 2, 10, 9, -2, -2, 11, -2, -2, 1, -2, -2, 11, 9, 12, -2, -2, -2, 12, 14, -2, -2, 9, -2, -2, 12, 27, 10, 12, 15, -2, -2, 11, -2, -2, 12, 10, -2, -2, 15, -2, -2, -2, 9, 31, 26, 3, -2, -2, -2, 9, -2, 3, -2, -2, 17, 16, 4, -2, -2, 2, -2, -2, 26, 4, -2, -2, -2], "threshold": [6.713919401168823, 2195.0, 562.9849853515625, 499.0, 1.2424533367156982, 159.5, -2.0, -2.0, -2.0, 854.0, 302.2749938964844, -2.0, -2.0, -2.0, 4071.449951171875, 1310.5, 0.5, -2.0, -2.0, 0.5, -2.0, -2.0, 49.97436332702637, -2.0, -2.0, 4968.0, 667.0899963378906, 1721.9849853515625, 4303.5, -2.0, -2.0, 403071.546875, -2.0, -2.0, 556.5, -2.0, -2.0, 458767.625, 11407.0, 1325.9805297851562, -2.0, -2.0, -2.0, 5252.623779296875, 6.867969512939453, -2.0, -2.0, 9260.0, -2.0, -2.0, 6405.638671875, 0.5, 5541.75, 983.21630859375, 6.994391441345215, -2.0, -2.0, 730065.1875, -2.0, -2.0, 1079.6948547363281, 9442.66015625, -2.0, -2.0, 6.954795837402344, -2.0, -2.0, -2.0, 6853.5, 0.5, 93.0, 279.625, -2.0, -2.0, -2.0, 5154.0, -2.0, 113.78571319580078, -2.0, -2.0, 0.0010040170745924115, 0.0005588565545622259, 217.8393325805664, -2.0, -2.0, 1001.5500183105469, -2.0, -2.0, 94.0, 180.92469787597656, -2.0, -2.0, -2.0], "value": [[[8.286110722585528]], [[-407.47708764945645]], [[-646.6522292999817]], [[-813.3835058484563]], [[-921.276938068126]], [[-952.1835541872292]], [[-1015.3725439427596]], [[-913.2980220299797]], [[-813.103781651265]], [[-660.0612600626088]], [[-678.0954175322178]], [[-699.8534710849145]], [[-638.9309211373641]], [[-609.5656191477034]], [[-548.3235277457536]], [[-579.3311136889512]], [[-636.1132231420078]], [[-565.8503893208962]], [[-713.4023403452304]], [[-487.60616764939857]], [[-402.56778923710357]], [[-525.4010024993074]], [[-337.4719433320097]], [[-445.7240607730543]], [[-229.21982589096507]], [[-216.13697432903643]], [[-355.8703830809462]], [[-392.66765632605313]], [[-482.36531627221876]], [[-506.58750477868455]], [[-385.4765622463557]], [[-344.9561350780924]], [[-366.8166271400288]], [[-195.57610598819383]], [[-152.0701004926624]], [[-203.7853241563273]], [[-107.74276592380677]], [[-46.460692273145874]], [[-138.7036924398215]], [[-172.49032821589066]], [[-251.0375636979695]], [[-139.25880551193433]], [[17.559498024498623]], [[119.57670802687024]], [[51.00572607679807]], [[84.98396174901453]], [[-3.3594509987482524]], [[193.86193847278176]], [[259.71246152457485]], [[146.82585057864384]], [[230.93089449571357]], [[72.37429160678992]], [[88.22543841758609]], [[-27.065770323625348]], [[-163.5034689393484]], [[-256.6126447703367]], [[-98.32704585765664]], [[37.36314291157723]], [[-60.40139821475341]], [[86.24541347474253]], [[164.60586420863868]], [[44.82220672685035]], [[-107.23442153119842]], [[113.2476894429723]], [[191.12285708628642]], [[62.96163903570254]], [[206.45838745131348]], [[-770.9067187275642]], [[402.80625202730675]], [[300.59933227543166]], [[275.7941136276218]], [[289.828892555513]], [[302.87269824360783]], [[139.82512714242316]], [[65.27242970925167]], [[417.3297729710077]], [[358.2828456061138]], [[458.66262212643323]], [[490.30477553293656]], [[427.0204687199299]], [[467.604103111829]], [[532.7314220674015]], [[445.1455624953733]], [[479.7196358845471]], [[396.16562519404357]], [[612.106107304552]], [[495.2143308938981]], [[644.8358046995348]], [[424.42185902172145]], [[436.49593919804005]], [[461.8648879546238]], [[381.9996789061193]], [[277.8080283092822]]]}, {"children_left": [1, 2, 3, 4, 5, 6, -1, -1, 9, -1, -1, 12, -1, -1, 15, 16, 17, -1, -1, -1, 21, -1, -1, 24, 25, 26, 27, -1, -1, -1, 31, 32, -1, -1, 35, -1, -1, 38, 39, 40, -1, -1, -1, 44, 45, -1, -1, -1, 49, 50, 51, 52, 53, -1, -1, 56, -1, -1, 59, 60, -1, -1, -1, 64, 65, 66, -1, -1, 69, -1, -1, 72, 73, -1, -1, -1, 77, 78, 79, -1, 81, -1, -1, -1, 85, 86, 87, -1, -1, 90, -1, -1, 93, 94, -1, -1, -1], "children_right": [48, 23, 14, 11, 8, 7, -1, -1, 10, -1, -1, 13, -1, -1, 20, 19, 18, -1, -1, -1, 22, -1, -1, 37, 30, 29, 28, -1, -1, -1, 34, 33, -1, -1, 36, -1, -1, 43, 42, 41, -1, -1, -1, 47, 46, -1, -1, -1, 76, 63, 58, 55, 54, -1, -1, 57, -1, -1, 62, 61, -1, -1, -1, 71, 68, 67, -1, -1, 70, -1, -1, 75, 74, -1, -1, -1, 84, 83, 80, -1, 82, -1, -1, -1, 92, 89, 88, -1, -1, 91, -1, -1, 96, 95, -1, -1, -1], "feature": [7, 9, 10, 9, 9, 26, -2, -2, 8, -2, -2, 9, -2, -2, 10, 27, 9, -2, -2, -2, 26, -2, -2, 9, 16, 7, 12, -2, -2, -2, 10, 9, -2, -2, 11, -2, -2, 12, 9, 12, -2, -2, -2, 11, 26, -2, -2, -2, 12, 12, 10, 7, 4, -2, -2, 17, -2, -2, 10, 10, -2, -2, -2, 10, 2, 12, -2, -2, 12, -2, -2, 0, 14, -2, -2, -2, 9, 9, 10, -2, 9, -2, -2, -2, 17, 4, 2, -2, -2, 8, -2, -2, 26, 4, -2, -2, -2], "threshold": [685741.84375, 2070.0, 487.99501037597656, 578.5, 190.5, 72.5, -2.0, -2.0, 17.5, -2.0, -2.0, 927.5, -2.0, -2.0, 3160.6500244140625, 0.5, 1310.5, -2.0, -2.0, -2.0, 46.5, -2.0, -2.0, 4940.0, 0.0016973922029137611, 557285.03125, 2158.44189453125, -2.0, -2.0, -2.0, 1790.0950317382812, 4226.0, -2.0, -2.0, 206829.8359375, -2.0, -2.0, 3762.4732666015625, 11407.0, 1980.7616577148438, -2.0, -2.0, -2.0, 586179.8125, 53.0, -2.0, -2.0, -2.0, 5207.9658203125, 1338.1693115234375, 9442.66015625, 1145927.5, 255.90750122070312, -2.0, -2.0, 0.013992172200232744, -2.0, -2.0, 16780.4853515625, 11236.23974609375, -2.0, -2.0, -2.0, 10676.1748046875, 939.2649841308594, 3145.900390625, -2.0, -2.0, 2532.260498046875, -2.0, -2.0, 12.5, 5.765112400054932, -2.0, -2.0, -2.0, 6472.0, 6261.0, 6706.5, -2.0, 5247.0, -2.0, -2.0, -2.0, 0.0009975084685720503, 206.71617889404297, 927.4949951171875, -2.0, -2.0, 427.5, -2.0, -2.0, 94.0, 165.87847137451172, -2.0, -2.0, -2.0], "value": [[[-1.752176536752595]], [[-419.6088894828864]], [[-644.819208996333]], [[-831.678409093945]], [[-913.7888340901707]], [[-989.8939021034807]], [[-967.5936250408166]], [[-1021.1142899912105]], [[-843.5380020778847]], [[-869.198454264265]], [[-802.4812785796763]], [[-660.6150236851416]], [[-691.4235983919444]], [[-638.6088988945683]], [[-564.4262973264302]], [[-596.81607514474]], [[-578.2729216073616]], [[-616.981362605207]], [[-497.3370904300489]], [[-849.0029632530886]], [[-382.5452372697663]], [[-255.50916247580307]], [[-461.94278401599325]], [[-244.28693188697508]], [[-360.61914859960297]], [[-192.94141888340712]], [[-231.24173572240272]], [[-286.1324050988981]], [[-169.48973267384525]], [[-84.42385450625306]], [[-415.7132597920674]], [[-480.81394313289974]], [[-494.61166552770106]], [[-409.0657866799328]], [[-363.9665627775595]], [[-399.4237179859434]], [[-312.99690216550795]], [[-77.84237566736866]], [[-136.99476694190332]], [[-177.56855076536246]], [[-233.32316037921197]], [[-118.53425823305125]], [[20.79217014932667]], [[46.09596795546593]], [[-12.328693246026468]], [[27.225903867150976]], [[-75.61604862711037]], [[141.03604240789107]], [[224.48623644564324]], [[57.23311145977881]], [[-63.9430376493671]], [[-130.14854422516152]], [[-256.00047857628323]], [[-142.36918742694644]], [[-331.754672675841]], [[-56.9788149512538]], [[-22.904873400275232]], [[-267.1014545156217]], [[131.7949817921125]], [[98.58285665175654]], [[37.886080915518086]], [[131.690188871523]], [[225.896003023121]], [[124.88359961273753]], [[84.67288015176779]], [[-52.19181911275319]], [[-130.46972913209567]], [[73.05283691819477]], [[102.11642025410875]], [[63.812046069224785]], [[134.8492491030096]], [[221.22178165464413]], [[201.26528993189473]], [[186.66664041155184]], [[272.17301617356003]], [[338.1098046021765]], [[384.79677888492506]], [[287.9551740505101]], [[298.5548068606595]], [[113.69554791075964]], [[312.03412782575623]], [[291.28579226474454]], [[362.42294275964207]], [[69.60273816143858]], [[451.4139338028661]], [[517.2863293963246]], [[571.0542004036691]], [[428.1476060800304]], [[593.3833557667378]], [[417.8157680327369]], [[483.82825866157896]], [[373.8074409468423]], [[413.86666831459524]], [[424.6407015566553]], [[456.98221934328484]], [[390.8930308227806]], [[245.0734808556522]]]}, {"children_left": [1, 2, 3, 4, 5, 6, -1, -1, 9, -1, -1, 12, -1, -1, 15, 16, 17, -1, -1, 20, -1, -1, 23, 24, -1, -1, -1, 28, 29, 30, 31, -1, -1, 34, -1, -1, 37, -1, 39, -1, -1, 42, 43, 44, -1, -1, 47, -1, -1, 50, -1, 52, -1, -1, 55, 56, 57, 58, 59, -1, -1, 62, -1, -1, -1, 66, 67, 68, -1, -1, -1, 72, -1, -1, 75, 76, 77, 78, -1, -1, 81, -1, -1, 84, 85, -1, -1, -1, 89, 90, 91, -1, -1, 94, -1, -1, 97, 98, -1, -1, 101, -1, -1], "children_right": [54, 27, 14, 11, 8, 7, -1, -1, 10, -1, -1, 13, -1, -1, 22, 19, 18, -1, -1, 21, -1, -1, 26, 25, -1, -1, -1, 41, 36, 33, 32, -1, -1, 35, -1, -1, 38, -1, 40, -1, -1, 49, 46, 45, -1, -1, 48, -1, -1, 51, -1, 53, -1, -1, 74, 65, 64, 61, 60, -1, -1, 63, -1, -1, -1, 71, 70, 69, -1, -1, -1, 73, -1, -1, 88, 83, 80, 79, -1, -1, 82, -1, -1, 87, 86, -1, -1, -1, 96, 93, 92, -1, -1, 95, -1, -1, 100, 99, -1, -1, 102, -1, -1], "feature": [16, 12, 12, 10, 15, 12, -2, -2, 14, -2, -2, 10, -2, -2, 10, 12, 15, -2, -2, 10, -2, -2, 16, 10, -2, -2, -2, 9, 31, 13, 26, -2, -2, 0, -2, -2, 9, -2, 10, -2, -2, 4, 17, 16, -2, -2, 4, -2, -2, 10, -2, 9, -2, -2, 9, 10, 9, 9, 30, -2, -2, 17, -2, -2, -2, 10, 7, 13, -2, -2, -2, 15, -2, -2, 9, 15, 10, 9, -2, -2, 9, -2, -2, 7, 17, -2, -2, -2, 12, 6, 3, -2, -2, 9, -2, -2, 11, 17, -2, -2, 3, -2, -2], "threshold": [0.0011899571400135756, 6405.638671875, 1246.4085693359375, 9401.18994140625, 7.12129282951355, 1015.39501953125, -2.0, -2.0, 4.269477367401123, -2.0, -2.0, 13896.740234375, -2.0, -2.0, 5395.2900390625, 2917.123046875, 6.870712757110596, -2.0, -2.0, 4763.364990234375, -2.0, -2.0, 0.0010300519643351436, 11579.009765625, -2.0, -2.0, -2.0, 6998.0, 0.5, 2.5249279737472534, 85.0, -2.0, -2.0, 12.5, -2.0, -2.0, 5154.0, -2.0, 12802.509765625, -2.0, -2.0, 169.18106842041016, 0.0010623533162288368, 0.0009888464992400259, -2.0, -2.0, 85.47629928588867, -2.0, -2.0, 12912.53515625, -2.0, 11863.0, -2.0, -2.0, 1281.1799926757812, 487.5400085449219, 566.0, 210.5, 0.5, -2.0, -2.0, 0.0038643828593194485, -2.0, -2.0, -2.0, 3160.6500244140625, 474784.640625, 2.2499048709869385, -2.0, -2.0, -2.0, 6.483124017715454, -2.0, -2.0, 4945.5, 6.450491905212402, 1430.6900024414062, 3255.0, -2.0, -2.0, 2863.0, -2.0, -2.0, 559096.03125, 0.0017623574822209775, -2.0, -2.0, -2.0, 3762.4732666015625, 789432.5, 59.31468391418457, -2.0, -2.0, 12709.5, -2.0, -2.0, 586888.90625, 0.0013441467308439314, -2.0, -2.0, 137.78571319580078, -2.0, -2.0], "value": [[[10.240964402388478]], [[220.2345654986642]], [[71.00446490330624]], [[-76.35644426314056]], [[-138.10478078917612]], [[-223.40895285203152]], [[-179.91348233942873]], [[-414.7890231074839]], [[-72.29870519783049]], [[-253.8601590075445]], [[-26.908341745401994]], [[136.3322704376485]], [[71.93870274240902]], [[200.72583813288801]], [[128.79305673328534]], [[46.33952708765219]], [[-5.490916304551414]], [[-155.9806410101588]], [[25.49226231130893]], [[119.61705050421588]], [[140.61949473236942]], [[72.94495221943033]], [[171.86579610040707]], [[182.76618081304332]], [[152.28480507645878]], [[241.60232467668328]], [[0.18473687638756076]], [[397.5623837793406]], [[298.2165812027425]], [[274.50339962445116]], [[250.5358976059019]], [[264.30361336151486]], [[85.32330853854592]], [[378.36257503816415]], [[339.4784721392788]], [[456.13078083593484]], [[398.0615562692322]], [[331.74398512010015]], [[436.74680610622585]], [[466.4492414916227]], [[395.16339656667026]], [[467.81405845850657]], [[520.6776949239855]], [[586.041409425188]], [[606.5823716808363]], [[493.60707927477097]], [[463.9144691729415]], [[365.4091661621713]], [[482.3842134874609]], [[413.4181426751874]], [[523.1758596745651]], [[399.02368798674445]], [[385.86580324572697]], [[475.0470220459573]], [[-386.24514885881064]], [[-683.6141766114741]], [[-846.2271691950465]], [[-902.2166900910506]], [[-967.8894228591714]], [[-928.2760346629308]], [[-1015.4254886946601]], [[-854.0566860610954]], [[-886.1684361623862]], [[-817.3575430881917]], [[-664.2612262830323]], [[-581.2282183181137]], [[-638.2458301114513]], [[-663.6012118372153]], [[-684.5900747914142]], [[-533.4702615211821]], [[-524.146612345513]], [[-330.3507264274294]], [[-445.29730112982423]], [[-215.40415172503452]], [[-247.78761212741202]], [[-368.9956080359766]], [[-415.2140664365454]], [[-501.0049991858652]], [[-520.92204059538]], [[-432.7180000675289]], [[-371.6153956950878]], [[-428.3259884740826]], [[-334.83014632492893]], [[-198.91168112188353]], [[-237.19899345424378]], [[-145.55923847899905]], [[-295.5152011657631]], [[-100.45859226724308]], [[-50.82461877599425]], [[-142.62360957568654]], [[-212.7757196979611]], [[-136.10794754262534]], [[-246.3178700159205]], [[-61.948682935070806]], [[-100.69758932037655]], [[28.46543196397594]], [[85.29112620285993]], [[6.602190832454539]], [[-41.583787580690384]], [[112.61134334137337]], [[182.13904665874344]], [[226.34440897410852]], [[111.4104669541593]]]}, {"children_left": [1, 2, 3, 4, 5, 6, -1, -1, -1, 10, -1, -1, 13, 14, 15, -1, -1, 18, -1, -1, 21, -1, -1, 24, 25, 26, 27, -1, -1, 30, -1, -1, 33, 34, -1, -1, 37, -1, -1, 40, 41, 42, -1, -1, 45, -1, -1, 48, -1, -1, 51, 52, 53, 54, 55, -1, -1, 58, -1, -1, 61, -1, 63, -1, -1, 66, 67, 68, -1, -1, 71, -1, -1, 74, 75, -1, -1, 78, -1, -1, 81, 82, 83, -1, 85, -1, -1, 88, 89, -1, -1, 92, -1, -1, 95, 96, -1, 98, -1, -1, 101, 102, -1, -1, 105, -1, -1], "children_right": [50, 23, 12, 9, 8, 7, -1, -1, -1, 11, -1, -1, 20, 17, 16, -1, -1, 19, -1, -1, 22, -1, -1, 39, 32, 29, 28, -1, -1, 31, -1, -1, 36, 35, -1, -1, 38, -1, -1, 47, 44, 43, -1, -1, 46, -1, -1, 49, -1, -1, 80, 65, 60, 57, 56, -1, -1, 59, -1, -1, 62, -1, 64, -1, -1, 73, 70, 69, -1, -1, 72, -1, -1, 77, 76, -1, -1, 79, -1, -1, 94, 87, 84, -1, 86, -1, -1, 91, 90, -1, -1, 93, -1, -1, 100, 97, -1, 99, -1, -1, 104, 103, -1, -1, 106, -1, -1], "feature": [2, 9, 10, 9, 5, 9, -2, -2, -2, 10, -2, -2, 8, 12, 2, -2, -2, 26, -2, -2, 11, -2, -2, 9, 12, 3, 9, -2, -2, 3, -2, -2, 16, 1, -2, -2, 12, -2, -2, 11, 0, 12, -2, -2, 26, -2, -2, 12, -2, -2, 12, 12, 10, 16, 6, -2, -2, 26, -2, -2, 10, -2, 26, -2, -2, 10, 12, 15, -2, -2, 17, -2, -2, 10, 1, -2, -2, 4, -2, -2, 9, 16, 10, -2, 4, -2, -2, 30, 3, -2, -2, 3, -2, -2, 9, 10, -2, 26, -2, -2, 15, 17, -2, -2, 3, -2, -2], "threshold": [830.7149963378906, 1711.1799926757812, 562.9849853515625, 566.0, 6.5, 216.875, -2.0, -2.0, -2.0, 378.4599914550781, -2.0, -2.0, 864.5, 452.627685546875, 664.010009765625, -2.0, -2.0, 36.5, -2.0, -2.0, 9659.1103515625, -2.0, -2.0, 4945.5, 1240.9625854492188, 89.17142868041992, 2811.10498046875, -2.0, -2.0, 348.02500915527344, -2.0, -2.0, 0.0014451004681177437, 542.0, -2.0, -2.0, 2136.1650390625, -2.0, -2.0, 543701.796875, 10.5, 2985.78173828125, -2.0, -2.0, 49.0, -2.0, -2.0, 5411.374267578125, -2.0, -2.0, 6405.638671875, 1246.4085693359375, 9442.66015625, 0.0009233599121216685, 4972.5, -2.0, -2.0, 49.5, -2.0, -2.0, 12797.6298828125, -2.0, 48.5, -2.0, -2.0, 5395.2900390625, 3343.8878173828125, 6.905136585235596, -2.0, -2.0, 0.0009611742862034589, -2.0, -2.0, 14565.7197265625, 644.5, -2.0, -2.0, 179.93087005615234, -2.0, -2.0, 6998.0, 0.0005129941564518958, 8708.66015625, -2.0, 187.27124786376953, -2.0, -2.0, 0.5, 182.96666717529297, -2.0, -2.0, 82.22916793823242, -2.0, -2.0, 11851.0, 8528.9599609375, -2.0, 94.5, -2.0, -2.0, 7.463759183883667, 0.000985747727099806, -2.0, -2.0, 90.94871520996094, -2.0, -2.0], "value": [[[-3.219396346529044]], [[-400.73040972673317]], [[-643.3863115028578]], [[-808.2852457102225]], [[-880.1759771922224]], [[-918.0725077747124]], [[-972.8237195602507]], [[-863.3212959891742]], [[-775.9605180903741]], [[-654.2336782487948]], [[-677.97639111617]], [[-611.4967950875196]], [[-545.3382965687491]], [[-584.096703814708]], [[-626.6314036819466]], [[-647.5963349032379]], [[-521.8067475754913]], [[-490.072630423969]], [[-405.6072182520819]], [[-520.2388490567859]], [[-363.47192410694277]], [[-475.18467146115324]], [[-293.65145701056133]], [[-231.30202860494194]], [[-358.15255115852244]], [[-449.34425995689503]], [[-412.30410879708325]], [[-451.88335683514134]], [[-381.85853338319254]], [[-491.9404337906787]], [[-479.75150363029337]], [[-528.5072242718346]], [[-286.8572151888858]], [[-170.1161453783499]], [[-204.20200935009]], [[-115.57876302356581]], [[-322.9913558445277]], [[-346.50089608843757]], [[-205.44365462497788]], [[-56.21257493943679]], [[-115.38443856851862]], [[-181.74743111782965]], [[-222.85366691758605]], [[-78.98184161843884]], [[-43.916600438491336]], [[35.61238594123006]], [[-86.02018146304972]], [[131.74510952941145]], [[63.89722760841111]], [[208.0739766905368]], [[219.1698060708561]], [[63.69194694496509]], [[-83.94186108619083]], [[-136.373173427495]], [[-74.68145623580388]], [[-276.3468383803902]], [[-39.09344762205337]], [[-239.19270208031347]], [[-312.9360535749249]], [[-176.79448158487304]], [[113.44660890460123]], [[44.4336616706547]], [[161.7556719683638]], [[232.43331772399364]], [[91.07802621273395]], [[127.64028090498459]], [[40.25790762214484]], [[2.7866073442436745]], [[-130.72832927463048]], [[41.549008298110365]], [[133.93615831689775]], [[103.35434061367349]], [[173.25563822104323]], [[164.99457788085508]], [[136.9423925586598]], [[100.12527692362333]], [[256.9982044120397]], [[248.30106762555553]], [[325.63469786140485]], [[204.1104217764987]], [[389.2435458493821]], [[299.62704001221175]], [[260.52981876018276]], [[123.23096341319624]], [[274.2597042948813]], [[362.7867360106805]], [[259.84832703882114]], [[349.6351137066673]], [[373.93677605189066]], [[394.5896032787977]], [[284.4411914019599]], [[278.9393687023814]], [[250.21605718938838]], [[313.40734251797306]], [[448.98788307416226]], [[421.8261723933443]], [[620.1732646248291]], [[411.0072400898088]], [[420.8848890454429]], [[203.5766120214923]], [[550.625252073351]], [[605.5321838611076]], [[649.6572871288402]], [[531.9903450815533]], [[492.05785816641094]], [[466.4746734315578]], [[543.2242276361173]]]}, {"children_left": [1, 2, 3, 4, 5, 6, -1, -1, 9, -1, -1, 12, 13, -1, -1, 16, -1, -1, 19, 20, 21, -1, -1, 24, -1, -1, 27, -1, -1, 30, 31, 32, 33, -1, -1, 36, -1, -1, -1, 40, 41, 42, -1, -1, 45, -1, -1, 48, 49, -1, -1, 52, -1, -1, 55, 56, 57, 58, 59, -1, -1, -1, 63, -1, -1, 66, 67, 68, -1, -1, 71, -1, -1, 74, -1, -1, 77, 78, 79, 80, -1, -1, 83, -1, -1, 86, -1, 88, -1, -1, 91, 92, 93, -1, -1, 96, -1, -1, 99, 100, -1, -1, -1], "children_right": [54, 29, 18, 11, 8, 7, -1, -1, 10, -1, -1, 15, 14, -1, -1, 17, -1, -1, 26, 23, 22, -1, -1, 25, -1, -1, 28, -1, -1, 39, 38, 35, 34, -1, -1, 37, -1, -1, -1, 47, 44, 43, -1, -1, 46, -1, -1, 51, 50, -1, -1, 53, -1, -1, 76, 65, 62, 61, 60, -1, -1, -1, 64, -1, -1, 73, 70, 69, -1, -1, 72, -1, -1, 75, -1, -1, 90, 85, 82, 81, -1, -1, 84, -1, -1, 87, -1, 89, -1, -1, 98, 95, 94, -1, -1, 97, -1, -1, 102, 101, -1, -1, -1], "feature": [16, 12, 10, 12, 16, 3, -2, -2, 26, -2, -2, 12, 7, -2, -2, 11, -2, -2, 16, 13, 17, -2, -2, 10, -2, -2, 26, -2, -2, 9, 3, 30, 15, -2, -2, 6, -2, -2, -2, 17, 4, 16, -2, -2, 14, -2, -2, 11, 8, -2, -2, 4, -2, -2, 9, 10, 9, 8, 9, -2, -2, -2, 14, -2, -2, 10, 9, 24, -2, -2, 6, -2, -2, 26, -2, -2, 9, 15, 10, 9, -2, -2, 26, -2, -2, 12, -2, 16, -2, -2, 11, 9, 5, -2, -2, 12, -2, -2, 10, 10, -2, -2, -2], "threshold": [0.0012061353190802038, 6405.638671875, 6179.5, 1979.779052734375, 0.0009233599121216685, 43.66666603088379, -2.0, -2.0, 58.0, -2.0, -2.0, 2530.491455078125, 1258206.625, -2.0, -2.0, 762252.40625, -2.0, -2.0, 0.0010300519643351436, 2.4414010047912598, 0.001994067570194602, -2.0, -2.0, 13592.4296875, -2.0, -2.0, 61.5, -2.0, -2.0, 6436.0, 255.875, 0.5, 7.63114333152771, -2.0, -2.0, 386885.0, -2.0, -2.0, -2.0, 0.0010040170745924115, 170.5100860595703, 0.000559138017706573, -2.0, -2.0, 7.0643110275268555, -2.0, -2.0, 877176.875, 1529.5, -2.0, -2.0, 154.1470184326172, -2.0, -2.0, 2070.0, 562.9849853515625, 566.0, 17.5, 159.5, -2.0, -2.0, -2.0, 6.353266477584839, -2.0, -2.0, 4036.2900390625, 1275.5, 0.5, -2.0, -2.0, 524930.5, -2.0, -2.0, 48.0, -2.0, -2.0, 4945.5, 6.334394454956055, 1790.0950317382812, 4303.5, -2.0, -2.0, 94.0, -2.0, -2.0, 1670.9047241210938, -2.0, 0.0013439267640933394, -2.0, -2.0, 529812.359375, 11407.0, 156.5, -2.0, -2.0, 3056.15625, -2.0, -2.0, 5526.719970703125, 4371.06494140625, -2.0, -2.0, -2.0], "value": [[[2.761730815984101]], [[224.55841972722794]], [[70.37224000420338]], [[-28.85749118815724]], [[-117.62682420818304]], [[-56.33913962854947]], [[-214.40454212898283]], [[-33.75836784277327]], [[-245.53155724394009]], [[-325.91419938710743]], [[-141.0341224578225]], [[111.2007897989946]], [[42.2026504697266]], [[-14.677530216823243]], [[70.64274081300152]], [[145.6998594636286]], [[74.67578483922189]], [[163.45587811973027]], [[148.6759734621206]], [[165.87056250066013]], [[143.8024397254507]], [[242.08068035434917]], [[117.10958424599696]], [[239.19368010861405]], [[148.5773860528118]], [[265.6234325415564]], [[-28.56055970436463]], [[52.47535777783958]], [[-158.21802767589136]], [[388.07037644962855]], [[286.01360176679344]], [[299.85937283115067]], [[319.5011019854307]], [[355.95993399508546]], [[281.74016883257394]], [[234.0018103726828]], [[185.27412944463188]], [[288.82045141674]], [[115.24909197305301]], [[436.66884058431174]], [[500.3872141675316]], [[573.4033503953463]], [[468.2792444707884]], [[593.6195246116074]], [[431.79629831716034]], [[415.40960963453426]], [[505.53639738897755]], [[397.45753376386915]], [[292.43048612114524]], [[147.6091536195284]], [[364.8411523719536]], [[415.1587215688229]], [[491.2414641540023]], [[374.49380742846785]], [[-389.4116533834809]], [[-640.374525639082]], [[-804.5088319554344]], [[-871.7202689600773]], [[-910.5692408535776]], [[-976.4136575761536]], [[-868.2406872462076]], [[-772.4395630100213]], [[-639.0652947132359]], [[-659.7110668538602]], [[-614.9785605491741]], [[-539.1958436632486]], [[-570.7755715071792]], [[-614.4358903701734]], [[-550.620092259174]], [[-681.2905360102683]], [[-471.9653761856659]], [[-438.5822481515631]], [[-565.4381346811535]], [[-361.20101399745755]], [[-275.7479509384766]], [[-432.41189987994176]], [[-216.2325953357566]], [[-342.038204161964]], [[-400.041238858844]], [[-462.01456494717456]], [[-484.14883814852413]], [[-379.8015501993047]], [[-343.2323566112077]], [[-324.5160896828242]], [[-459.27321156718506]], [[-208.63122435914013]], [[-344.7435624158288]], [[-167.20573016797402]], [[-80.90095843296346]], [[-197.66623783915426]], [[-43.249883199721175]], [[-112.3746213230151]], [[-145.09422337254895]], [[-172.10433315829732]], [[-21.619435780556064]], [[3.6312404889683254]], [[27.848013460702532]], [[-25.428887077112723]], [[113.8517943532196]], [[55.17543778247872]], [[-10.34172293468896]], [[91.57386040312743]], [[216.53541835201608]]]}, {"children_left": [1, 2, 3, 4, 5, 6, -1, -1, 9, -1, -1, 12, 13, -1, -1, 16, -1, -1, -1, 20, 21, 22, 23, -1, -1, -1, -1, 28, 29, -1, 31, -1, -1, 34, 35, -1, -1, 38, -1, -1, 41, 42, 43, 44, 45, -1, -1, -1, -1, 50, 51, 52, -1, -1, 55, -1, -1, 58, -1, -1, 61, 62, 63, 64, -1, -1, 67, -1, -1, 70, 71, -1, -1, -1, 75, 76, 77, -1, -1, 80, -1, -1, 83, 84, -1, -1, -1], "children_right": [40, 19, 18, 11, 8, 7, -1, -1, 10, -1, -1, 15, 14, -1, -1, 17, -1, -1, -1, 27, 26, 25, 24, -1, -1, -1, -1, 33, 30, -1, 32, -1, -1, 37, 36, -1, -1, 39, -1, -1, 60, 49, 48, 47, 46, -1, -1, -1, -1, 57, 54, 53, -1, -1, 56, -1, -1, 